{"learner":{"attributes":{"scikit_learn":"{\"_estimator_type\": \"classifier\"}"},"feature_names":["Age","IsMale","HEALTHCARE_EXPENSES","HEALTHCARE_COVERAGE","TotalEncounters","InpatientEncounters","EmergencyEncounters","ConditionCount","IsDiabetes","IsHypertension","BodyHeight","BodyWeight","BodyMassIndex","SystolicBloodPressure","DiastolicBloodPressure","Heartrate"],"feature_types":["int","int","float","float","int","float","float","int","int","int","float","float","float","float","float","float"],"gradient_booster":{"model":{"cats":{"enc":[],"feature_segments":[],"sorted_idx":[]},"gbtree_model_param":{"num_parallel_tree":"1","num_trees":"100"},"iteration_indptr":[0,1,2,3,4,5,6,7,8,9,10,11,12,13,14,15,16,17,18,19,20,21,22,23,24,25,26,27,28,29,30,31,32,33,34,35,36,37,38,39,40,41,42,43,44,45,46,47,48,49,50,51,52,53,54,55,56,57,58,59,60,61,62,63,64,65,66,67,68,69,70,71,72,73,74,75,76,77,78,79,80,81,82,83,84,85,86,87,88,89,90,91,92,93,94,95,96,97,98,99,100],"tree_info":[0,0,0,0,0,0,0,0,0,0,0,0,0,0,0,0,0,0,0,0,0,0,0,0,0,0,0,0,0,0,0,0,0,0,0,0,0,0,0,0,0,0,0,0,0,0,0,0,0,0,0,0,0,0,0,0,0,0,0,0,0,0,0,0,0,0,0,0,0,0,0,0,0,0,0,0,0,0,0,0,0,0,0,0,0,0,0,0,0,0,0,0,0,0,0,0,0,0,0,0],"trees":[{"base_weights":[-3.2406408E-8,-4.9411765E-1,1.68E0,-8.315335E-1,5.027624E-1,1.8260866E-2,2.5045872E-1,-9.9395774E-2,-3.0939227E-1,1.6055046E-1,-6.942149E-2,3.3980582E-2,-7.1653545E-2],"categories":[],"categories_nodes":[],"categories_segments":[],"categories_sizes":[],"default_left":[0,0,0,0,0,0,0,0,0,0,0,0,0],"id":0,"left_children":[1,3,5,7,9,-1,-1,-1,11,-1,-1,-1,-1],"loss_changes":[1.3044705E1,4.5024724E0,3.9523897E0,4.938302E-1,5.990326E0,0E0,0E0,0E0,1.2198358E0,0E0,0E0,0E0,0E0],"parents":[2147483647,0,0,1,1,2,2,3,3,4,4,8,8],"right_children":[2,4,6,8,10,-1,-1,-1,12,-1,-1,-1,-1],"split_conditions":[2E0,3E0,3.1245275E5,8.97E1,1E0,1.8260866E-2,2.5045872E-1,-9.9395774E-2,9.47E1,1.6055046E-1,-6.942149E-2,3.3980582E-2,-7.1653545E-2],"split_indices":[5,6,3,11,9,0,0,0,11,0,0,0,0],"split_type":[0,0,0,0,0,0,0,0,0,0,0,0,0],"sum_hessian":[1.3714287E1,1.1142858E1,2.5714288E0,8.44898E0,2.6938777E0,1.3469388E0,1.2244899E0,5.7551026E0,2.6938777E0,1.2244899E0,1.4693879E0,1.1020409E0,1.5918368E0],"tree_param":{"num_deleted":"0","num_feature":"16","num_nodes":"13","size_leaf_vector":"1"}},{"base_weights":[1.0771049E-2,-4.6622753E-1,1.4776732E0,-8.0401015E-1,4.64269E-1,-1.0975952E-2,2.1075404E-1,-9.697776E-2,-2.938092E-1,1.4697734E-1,-6.86118E-2,4.110024E-2,-7.178996E-2],"categories":[],"categories_nodes":[],"categories_segments":[],"categories_sizes":[],"default_left":[0,0,0,0,0,0,0,0,0,0,0,0,0],"id":1,"left_children":[1,3,5,7,9,-1,-1,-1,11,-1,-1,-1,-1],"loss_changes":[1.0889384E1,4.0698442E0,4.047882E0,4.7580194E-1,5.3649626E0,0E0,0E0,0E0,1.3831986E0,0E0,0E0,0E0,0E0],"parents":[2147483647,0,0,1,1,2,2,3,3,4,4,8,8],"right_children":[2,4,6,8,10,-1,-1,-1,12,-1,-1,-1,-1],"split_conditions":[2E0,3E0,1.7560635E6,8.97E1,8E1,-1.0975952E-2,2.1075404E-1,-9.697776E-2,9.46E1,1.4697734E-1,-6.86118E-2,4.110024E-2,-7.178996E-2],"split_indices":[5,6,2,11,14,0,0,0,11,0,0,0,0],"split_type":[0,0,0,0,0,0,0,0,0,0,0,0,0],"sum_hessian":[1.3578109E1,1.076106E1,2.8170493E0,7.994782E0,2.7662778E0,1.0348057E0,1.7822437E0,5.3543453E0,2.6404362E0,1.3279444E0,1.4383334E0,1.0035163E0,1.6369199E0],"tree_param":{"num_deleted":"0","num_feature":"16","num_nodes":"13","size_leaf_vector":"1"}},{"base_weights":[1.5941527E-2,-4.403515E-1,1.2909842E0,-7.7741164E-1,4.2789996E-1,1.8620639E-1,-1.4331931E-2,-2.6493725E-1,-9.5224805E-2,1.3054882E-1,-6.6576734E-2,-6.933504E-2,4.018424E-2],"categories":[],"categories_nodes":[],"categories_segments":[],"categories_sizes":[],"default_left":[0,0,0,0,0,0,0,0,0,0,0,0,0],"id":2,"left_children":[1,3,5,7,9,-1,-1,11,-1,-1,-1,-1,-1],"loss_changes":[8.982851E0,3.6679623E0,3.5973468E0,5.151081E-1,4.547116E0,0E0,0E0,1.2967424E0,0E0,0E0,0E0,0E0,0E0],"parents":[2147483647,0,0,1,1,2,2,3,3,4,4,7,7],"right_children":[2,4,6,8,10,-1,-1,12,-1,-1,-1,-1,-1],"split_conditions":[2E0,3E0,8.24E1,4E1,8E1,1.8620639E-1,-1.4331931E-2,8E1,-9.5224805E-2,1.3054882E-1,-6.6576734E-2,-6.933504E-2,4.018424E-2],"split_indices":[5,6,11,4,14,0,0,14,0,0,0,0,0],"split_type":[0,0,0,0,0,0,0,0,0,0,0,0,0],"sum_hessian":[1.3462814E1,1.0396802E1,3.0660126E0,7.564748E0,2.832054E0,1.9795882E0,1.0864246E0,2.5641484E0,5.0005994E0,1.46379E0,1.368264E0,1.5368538E0,1.0272948E0],"tree_param":{"num_deleted":"0","num_feature":"16","num_nodes":"13","size_leaf_vector":"1"}},{"base_weights":[1.8635573E-2,-5.778176E-1,8.663249E-1,-8.4201074E-1,3.4639224E-2,1.5840445E0,-5.8805544E-2,-9.5207006E-2,-9.656957E-3,2.8686795E-2,2.048E-1,5.556337E-2,-6.674063E-2],"categories":[],"categories_nodes":[],"categories_segments":[],"categories_sizes":[],"default_left":[0,0,0,0,0,0,0,0,0,0,0,0,0],"id":3,"left_children":[1,3,5,7,-1,9,11,-1,-1,-1,-1,-1,-1],"loss_changes":[7.7517304E0,2.4936175E0,4.291765E0,5.073633E-1,0E0,1.5770674E0,1.7644347E0,0E0,0E0,0E0,0E0,0E0,0E0],"parents":[2147483647,0,0,1,1,2,2,3,3,5,5,6,6],"right_children":[2,4,6,8,-1,10,12,-1,-1,-1,-1,-1,-1],"split_conditions":[1E0,3E0,8.26E1,9.4E1,3.4639224E-2,5.9E1,1E0,-9.5207006E-2,-9.656957E-3,2.8686795E-2,2.048E-1,5.556337E-2,-6.674063E-2],"split_indices":[5,6,11,15,0,7,8,0,0,0,0,0,0],"split_type":[0,0,0,0,0,0,0,0,0,0,0,0,0],"sum_hessian":[1.3341479E1,8.018115E0,5.3233643E0,6.304781E0,1.7133343E0,2.596641E0,2.726723E0,5.252147E0,1.0526338E0,1.1103932E0,1.486248E0,1.4001608E0,1.326562E0],"tree_param":{"num_deleted":"0","num_feature":"16","num_nodes":"13","size_leaf_vector":"1"}},{"base_weights":[2.4876148E-2,-5.50734E-1,7.890792E-1,-8.1725776E-1,3.1958226E-2,1.3196975E0,-1.7870055E-1,-7.1923337E-3,-9.325718E-2,2.168086E-2,1.6832203E-1,3.557196E-2,-6.200234E-2],"categories":[],"categories_nodes":[],"categories_segments":[],"categories_sizes":[],"default_left":[0,0,0,0,0,0,0,0,0,0,0,0,0],"id":4,"left_children":[1,3,5,7,-1,9,11,-1,-1,-1,-1,-1,-1],"loss_changes":[6.6720133E0,2.273853E0,3.5752416E0,5.2800226E-1,0E0,1.3668075E0,9.7141033E-1,0E0,0E0,0E0,0E0,0E0,0E0],"parents":[2147483647,0,0,1,1,2,2,3,3,5,5,6,6],"right_children":[2,4,6,8,-1,10,12,-1,-1,-1,-1,-1,-1],"split_conditions":[1E0,3E0,8.41E1,1.46769E3,3.1958226E-2,1.9513134E6,1.7560635E6,-7.1923337E-3,-9.325718E-2,2.168086E-2,1.6832203E-1,3.557196E-2,-6.200234E-2],"split_indices":[5,6,11,3,0,2,2,0,0,0,0,0,0],"split_type":[0,0,0,0,0,0,0,0,0,0,0,0,0],"sum_hessian":[1.31797695E1,7.676809E0,5.502961E0,5.9237094E0,1.7530992E0,3.3193696E0,2.1835918E0,1.0112429E0,4.9124665E0,1.2186195E0,2.1007502E0,1.0753572E0,1.1082346E0],"tree_param":{"num_deleted":"0","num_feature":"16","num_nodes":"13","size_leaf_vector":"1"}},{"base_weights":[2.6941538E-2,-5.247435E-1,7.134507E-1,-7.9306537E-1,2.9505417E-2,1.1816669E0,-1.9761507E-1,-6.850683E-3,-9.1173194E-2,1.7047694E-1,3.9276296E-1,3.2567706E-2,-6.044456E-2,-1.605313E-2,7.7369854E-2],"categories":[],"categories_nodes":[],"categories_segments":[],"categories_sizes":[],"default_left":[0,0,0,0,0,0,0,0,0,0,0,0,0,0,0],"id":5,"left_children":[1,3,5,7,-1,9,11,-1,-1,-1,13,-1,-1,-1,-1],"loss_changes":[5.6906915E0,2.0727034E0,3.0822096E0,5.0233316E-1,0E0,1.2099152E0,8.6185855E-1,0E0,0E0,0E0,7.807932E-1,0E0,0E0,0E0,0E0],"parents":[2147483647,0,0,1,1,2,2,3,3,5,5,6,6,10,10],"right_children":[2,4,6,8,-1,10,12,-1,-1,-1,14,-1,-1,-1,-1],"split_conditions":[1E0,3E0,1E0,1.46769E3,2.9505417E-2,7E1,8.31E1,-6.850683E-3,-9.1173194E-2,1.7047694E-1,6E0,3.2567706E-2,-6.044456E-2,-1.605313E-2,7.7369854E-2],"split_indices":[5,6,8,3,0,0,11,0,0,0,5,0,0,0,0],"split_type":[0,0,0,0,0,0,0,0,0,0,0,0,0,0,0],"sum_hessian":[1.3036958E1,7.3589077E0,5.67805E0,5.5688252E0,1.7900827E0,3.5543683E0,2.123682E0,1.0056703E0,4.5631547E0,1.4391618E0,2.1152065E0,1.0161371E0,1.1075449E0,1.0984038E0,1.0168025E0],"tree_param":{"num_deleted":"0","num_feature":"16","num_nodes":"15","size_leaf_vector":"1"}},{"base_weights":[3.2105953E-2,-4.999439E-1,6.5774477E-1,-7.695154E-1,2.7258394E-2,1.0737817E0,-1.8925196E-1,-6.5252916E-3,-8.915324E-2,1.3553177E0,1.4896539E-2,-5.980071E-2,3.101013E-2,3.7300836E-2,1.6097152E-1],"categories":[],"categories_nodes":[],"categories_segments":[],"categories_sizes":[],"default_left":[0,0,0,0,0,0,0,0,0,0,0,0,0,0,0],"id":6,"left_children":[1,3,5,7,-1,9,11,-1,-1,13,-1,-1,-1,-1,-1],"loss_changes":[4.945947E0,1.8891177E0,2.6016946E0,4.78009E-1,0E0,1.0255613E0,8.165975E-1,0E0,0E0,2.7185297E-1,0E0,0E0,0E0,0E0,0E0],"parents":[2147483647,0,0,1,1,2,2,3,3,5,5,6,6,9,9],"right_children":[2,4,6,8,-1,10,12,-1,-1,14,-1,-1,-1,-1,-1],"split_conditions":[1E0,3E0,1E0,1.46769E3,2.7258394E-2,9.6E1,6.2E1,-6.5252916E-3,-8.915324E-2,1.5987855E6,1.4896539E-2,-5.980071E-2,3.101013E-2,3.7300836E-2,1.6097152E-1],"split_indices":[5,6,8,3,0,0,7,0,0,2,0,0,0,0,0],"split_type":[0,0,0,0,0,0,0,0,0,0,0,0,0,0,0],"sum_hessian":[1.2870571E1,7.064096E0,5.806475E0,5.239638E0,1.8244581E0,3.7142954E0,2.0921795E0,1.0003812E0,4.239257E0,2.4905992E0,1.2236964E0,1.0418172E0,1.0503623E0,1.0196501E0,1.470949E0],"tree_param":{"num_deleted":"0","num_feature":"16","num_nodes":"15","size_leaf_vector":"1"}},{"base_weights":[3.588239E-2,-2.6926383E-1,1.0183249E0,-6.891539E-1,3.9392346E-1,2.9950727E-2,1.202239E-1,-8.942373E-2,-1.3287108E-1,9.491201E-1,-6.6210136E-2,-5.8344018E-2,3.9540205E-2,1.4962362E-1,6.060036E-3],"categories":[],"categories_nodes":[],"categories_segments":[],"categories_sizes":[],"default_left":[0,0,0,0,0,0,0,0,0,0,0,0,0,0,0],"id":7,"left_children":[1,3,5,7,9,-1,-1,-1,11,13,-1,-1,-1,-1,-1],"loss_changes":[4.3848815E0,3.40511E0,9.716606E-2,7.087784E-1,3.5593152E0,0E0,0E0,0E0,9.753593E-1,1.7018335E0,0E0,0E0,0E0,0E0,0E0],"parents":[2147483647,0,0,1,1,2,2,3,3,4,4,8,8,9,9],"right_children":[2,4,6,8,10,-1,-1,-1,12,14,-1,-1,-1,-1,-1],"split_conditions":[3E0,3E0,8.5E1,8.97E1,8.4E1,2.9950727E-2,1.202239E-1,-8.942373E-2,2E0,2.82E1,-6.6210136E-2,-5.8344018E-2,3.9540205E-2,1.4962362E-1,6.060036E-3],"split_indices":[5,6,14,11,14,0,0,0,6,12,0,0,0,0,0],"split_type":[0,0,0,0,0,0,0,0,0,0,0,0,0,0,0],"sum_hessian":[1.271194E1,1.0253218E1,2.4587214E0,6.2542505E0,3.9989674E0,1.0364265E0,1.4222949E0,4.125712E0,2.1285386E0,2.6873484E0,1.311619E0,1.0923953E0,1.0361433E0,1.2399006E0,1.4474478E0],"tree_param":{"num_deleted":"0","num_feature":"16","num_nodes":"15","size_leaf_vector":"1"}},{"base_weights":[4.0396888E-2,-2.522138E-1,9.379334E-1,-6.654533E-1,3.6787862E-1,1.1062523E-1,2.787067E-2,-8.740096E-2,-1.2702346E-1,8.712526E-1,-6.424614E-2,3.8813226E-2,-5.753796E-2,1.3558292E-1,5.14084E-3],"categories":[],"categories_nodes":[],"categories_segments":[],"categories_sizes":[],"default_left":[0,0,0,0,0,0,0,0,0,0,0,0,0,0,0],"id":8,"left_children":[1,3,5,7,9,-1,-1,-1,11,13,-1,-1,-1,-1,-1],"loss_changes":[3.7868483E0,3.0590975E0,8.39839E-2,6.690397E-1,3.1209974E0,0E0,0E0,0E0,9.415418E-1,1.4343147E0,0E0,0E0,0E0,0E0,0E0],"parents":[2147483647,0,0,1,1,2,2,3,3,4,4,8,8,9,9],"right_children":[2,4,6,8,10,-1,-1,-1,12,14,-1,-1,-1,-1,-1],"split_conditions":[3E0,3E0,1.7E1,8.97E1,8.4E1,1.1062523E-1,2.787067E-2,-8.740096E-2,7E1,1E0,-6.424614E-2,3.8813226E-2,-5.753796E-2,1.3558292E-1,5.14084E-3],"split_indices":[5,6,5,11,14,0,0,0,0,8,0,0,0,0,0],"split_type":[0,0,0,0,0,0,0,0,0,0,0,0,0,0,0],"sum_hessian":[1.2518277E1,9.982743E0,2.5355341E0,5.946649E0,4.036094E0,1.479636E0,1.0558982E0,3.8371181E0,2.1095307E0,2.785807E0,1.2502873E0,1.0441439E0,1.0653868E0,1.3400142E0,1.4457927E0],"tree_param":{"num_deleted":"0","num_feature":"16","num_nodes":"15","size_leaf_vector":"1"}},{"base_weights":[4.3215018E-2,-4.3447664E-1,5.331415E-1,2.800872E-2,-7.302245E-1,9.659919E-1,-1.0011691E-1,-6.307916E-3,-8.669699E-2,9.592256E-3,1.3163903E-1,3.536066E-2,-6.1005104E-2],"categories":[],"categories_nodes":[],"categories_segments":[],"categories_sizes":[],"default_left":[0,0,0,0,0,0,0,0,0,0,0,0,0],"id":9,"left_children":[1,3,5,-1,7,9,11,-1,-1,-1,-1,-1,-1],"loss_changes":[3.3508317E0,1.7470772E0,2.023332E0,0E0,4.4157624E-1,1.1751952E0,1.0856255E0,0E0,0E0,0E0,0E0,0E0,0E0],"parents":[2147483647,0,0,1,1,2,2,4,4,5,5,6,6],"right_children":[2,4,6,-1,8,10,12,-1,-1,-1,-1,-1,-1],"split_conditions":[1E0,1.627E2,8.26E1,2.800872E-2,3E1,5.9E1,1E0,-6.307916E-3,-8.669699E-2,9.592256E-3,1.3163903E-1,3.536066E-2,-6.1005104E-2],"split_indices":[5,10,11,0,4,7,8,0,0,0,0,0,0],"split_type":[0,0,0,0,0,0,0,0,0,0,0,0,0],"sum_hessian":[1.2327964E1,6.2992268E0,6.028737E0,1.859469E0,4.439758E0,3.2689114E0,2.7598257E0,1.0037943E0,3.4359634E0,1.3042067E0,1.9647048E0,1.622627E0,1.1371988E0],"tree_param":{"num_deleted":"0","num_feature":"16","num_nodes":"13","size_leaf_vector":"1"}},{"base_weights":[4.183507E-2,-2.024812E-1,9.218298E-1,-6.501239E-1,3.8474387E-1,1.18010394E-1,2.079975E-2,-8.6775586E-2,-1.0081403E-1,9.1313237E-1,-4.3399166E-2,3.9645035E-2,-5.5430662E-2,1.24995746E-1,1.5286905E-2],"categories":[],"categories_nodes":[],"categories_segments":[],"categories_sizes":[],"default_left":[0,0,0,0,0,0,0,0,0,0,0,0,0,0,0],"id":10,"left_children":[1,3,5,7,9,-1,-1,-1,11,13,-1,-1,-1,-1,-1],"loss_changes":[3.0214236E0,3.1784408E0,3.159809E-1,7.126479E-1,2.7526748E0,0E0,0E0,0E0,9.0319395E-1,7.3913956E-1,0E0,0E0,0E0,0E0,0E0],"parents":[2147483647,0,0,1,1,2,2,3,3,4,4,8,8,9,9],"right_children":[2,4,6,8,10,-1,-1,-1,12,14,-1,-1,-1,-1,-1],"split_conditions":[1.1E1,3E0,1.32E2,8.97E1,8.41E1,1.18010394E-1,2.079975E-2,-8.6775586E-2,9.5E1,7.1E1,-4.3399166E-2,3.9645035E-2,-5.5430662E-2,1.24995746E-1,1.5286905E-2],"split_indices":[5,6,13,11,11,0,0,0,11,0,0,0,0,0,0],"split_type":[0,0,0,0,0,0,0,0,0,0,0,0,0,0,0],"sum_hessian":[1.2185161E1,1.0139891E1,2.04527E0,5.6929975E0,4.4468937E0,1.0222216E0,1.0230484E0,3.6623032E0,2.030694E0,2.6325955E0,1.814298E0,1.0285983E0,1.0020957E0,1.3779855E0,1.2546101E0],"tree_param":{"num_deleted":"0","num_feature":"16","num_nodes":"15","size_leaf_vector":"1"}},{"base_weights":[4.6942618E-2,-1.884896E-1,8.629502E-1,-6.273488E-1,3.6160418E-1,1.1009206E-1,1.967764E-2,-8.478791E-2,-9.699418E-3,7.299331E-1,-6.05833E-2,1.1592928E-1,-2.2299133E-2],"categories":[],"categories_nodes":[],"categories_segments":[],"categories_sizes":[],"default_left":[0,0,0,0,0,0,0,0,0,0,0,0,0],"id":11,"left_children":[1,3,5,7,9,-1,-1,-1,-1,11,-1,-1,-1],"loss_changes":[2.6567044E0,2.8572836E0,2.7260995E-1,6.693866E-1,2.3912127E0,0E0,0E0,0E0,0E0,2.064861E0,0E0,0E0,0E0],"parents":[2147483647,0,0,1,1,2,2,3,3,4,4,9,9],"right_children":[2,4,6,8,10,-1,-1,-1,-1,12,-1,-1,-1],"split_conditions":[1.1E1,3E0,1.32E2,8.97E1,9.1E1,1.1009206E-1,1.967764E-2,-8.478791E-2,-9.699418E-3,8.41E1,-6.05833E-2,1.1592928E-1,-2.2299133E-2],"split_indices":[5,6,13,11,0,0,0,0,0,11,0,0,0],"split_type":[0,0,0,0,0,0,0,0,0,0,0,0,0],"sum_hessian":[1.198209E1,9.895949E0,2.0861416E0,5.4263906E0,4.4695582E0,1.056232E0,1.0299095E0,3.4098258E0,2.0165648E0,3.41491E0,1.0546483E0,2.2048888E0,1.2100214E0],"tree_param":{"num_deleted":"0","num_feature":"16","num_nodes":"13","size_leaf_vector":"1"}},{"base_weights":[4.6754703E-2,-1.8046108E-1,8.0930865E-1,-6.042079E-1,3.2850605E-1,1.02986135E-1,1.8617703E-2,-8.8431565E-3,-8.312485E-2,6.658857E-1,-5.8805358E-2,1.0484227E-1,-2.1250268E-2],"categories":[],"categories_nodes":[],"categories_segments":[],"categories_sizes":[],"default_left":[0,0,0,0,0,0,0,0,0,0,0,0,0],"id":12,"left_children":[1,3,5,7,9,-1,-1,-1,-1,11,-1,-1,-1],"loss_changes":[2.3632474E0,2.501154E0,2.3705244E-1,6.49982E-1,2.0918293E0,0E0,0E0,0E0,0E0,1.7308215E0,0E0,0E0,0E0],"parents":[2147483647,0,0,1,1,2,2,3,3,4,4,9,9],"right_children":[2,4,6,8,10,-1,-1,-1,-1,12,-1,-1,-1],"split_conditions":[1.1E1,3E0,1.32E2,4E1,9.1E1,1.02986135E-1,1.8617703E-2,-8.8431565E-3,-8.312485E-2,8.41E1,-5.8805358E-2,1.0484227E-1,-2.1250268E-2],"split_indices":[5,6,13,4,0,0,0,0,0,11,0,0,0],"split_type":[0,0,0,0,0,0,0,0,0,0,0,0,0],"sum_hessian":[1.1796629E1,9.676654E0,2.1199756E0,5.178284E0,4.4983697E0,1.0836921E0,1.0362835E0,2.0074306E0,3.1708539E0,3.4879663E0,1.0104033E0,2.294945E0,1.1930212E0],"tree_param":{"num_deleted":"0","num_feature":"16","num_nodes":"13","size_leaf_vector":"1"}},{"base_weights":[4.5773655E-2,2.9505253E-1,-5.981294E-1,7.6154935E-1,-2.0389143E-1,-7.4957624E-2,-9.029531E-3,1.2221493E-1,-1.3210535E-2,-5.331512E-1,5.9169646E-2,7.6306536E-4,-8.1243984E-2],"categories":[],"categories_nodes":[],"categories_segments":[],"categories_sizes":[],"default_left":[0,0,0,0,0,0,0,0,0,0,0,0,0],"id":13,"left_children":[1,3,5,7,9,-1,-1,-1,-1,11,-1,-1,-1],"loss_changes":[2.2009008E0,2.4274347E0,2.2844434E-1,2.3250089E0,1.7577268E0,0E0,0E0,0E0,0E0,6.7379606E-1,0E0,0E0,0E0],"parents":[2147483647,0,0,1,1,2,2,3,3,4,4,9,9],"right_children":[2,4,6,8,10,-1,-1,-1,-1,12,-1,-1,-1],"split_conditions":[9.08E1,7.1E1,1.842E2,8.5E1,2.6634752E6,-7.4957624E-2,-9.029531E-3,1.2221493E-1,-1.3210535E-2,1.21E2,5.9169646E-2,7.6306536E-4,-8.1243984E-2],"split_indices":[11,0,10,14,2,0,0,0,0,13,0,0,0],"split_type":[0,0,0,0,0,0,0,0,0,0,0,0,0],"sum_hessian":[1.1612318E1,8.761997E0,2.8503208E0,4.2562323E0,4.5057654E0,1.8288834E0,1.0214374E0,2.5660665E0,1.6901659E0,3.4201686E0,1.0855964E0,1.4960568E0,1.924112E0],"tree_param":{"num_deleted":"0","num_feature":"16","num_nodes":"13","size_leaf_vector":"1"}},{"base_weights":[4.024625E-2,-3.736643E-1,4.2345825E-1,2.3870261E-2,-6.602022E-1,7.5166166E-1,-2.5784042E-1,-6.7443675E-3,-8.006667E-2,9.677728E-1,5.743825E-3,-5.9373047E-2,2.0673515E-2,1.20187595E-1,1.6616711E-2],"categories":[],"categories_nodes":[],"categories_segments":[],"categories_sizes":[],"default_left":[0,0,0,0,0,0,0,0,0,0,0,0,0,0,0],"id":14,"left_children":[1,3,5,-1,7,9,11,-1,-1,13,-1,-1,-1,-1,-1],"loss_changes":[2.1513288E0,1.3107691E0,1.7575923E0,0E0,3.4088326E-1,6.9084597E-1,5.937364E-1,0E0,0E0,5.004482E-1,0E0,0E0,0E0,0E0,0E0],"parents":[2147483647,0,0,1,1,2,2,4,4,5,5,6,6,9,9],"right_children":[2,4,6,-1,8,10,12,-1,-1,14,-1,-1,-1,-1,-1],"split_conditions":[1E0,1.627E2,1E0,2.3870261E-2,1.794225E3,1.32E2,6.4E1,-6.7443675E-3,-8.006667E-2,2.1266052E6,5.743825E-3,-5.9373047E-2,2.0673515E-2,1.20187595E-1,1.6616711E-2],"split_indices":[5,10,8,0,3,13,7,0,0,2,0,0,0,0,0],"split_type":[0,0,0,0,0,0,0,0,0,0,0,0,0,0,0],"sum_hessian":[1.1565593E1,5.572069E0,5.993524E0,1.8293866E0,3.7426825E0,3.9752438E0,2.0182803E0,1.0005445E0,2.742138E0,2.7310379E0,1.2442061E0,1.0100231E0,1.0082572E0,1.7272664E0,1.0037713E0],"tree_param":{"num_deleted":"0","num_feature":"16","num_nodes":"15","size_leaf_vector":"1"}},{"base_weights":[3.882408E-2,-1.7645483E-1,7.330235E-1,-5.775351E-1,2.8712392E-1,9.073122E-2,1.89241E-2,-8.1491776E-2,-4.183728E-3,6.6256547E-1,-3.652537E-2,1.086834E-1,9.714882E-3],"categories":[],"categories_nodes":[],"categories_segments":[],"categories_sizes":[],"default_left":[0,0,0,0,0,0,0,0,0,0,0,0,0],"id":15,"left_children":[1,3,5,7,9,-1,-1,-1,-1,11,-1,-1,-1],"loss_changes":[1.9894336E0,2.0821044E0,1.259104E-1,7.1080375E-1,1.5765343E0,0E0,0E0,0E0,0E0,8.0928266E-1,0E0,0E0,0E0],"parents":[2147483647,0,0,1,1,2,2,3,3,4,4,9,9],"right_children":[2,4,6,8,10,-1,-1,-1,-1,12,-1,-1,-1],"split_conditions":[1.1E1,3E0,1.32E2,8.97E1,8.41E1,9.073122E-2,1.89241E-2,-8.1491776E-2,-4.183728E-3,1E0,-3.652537E-2,1.086834E-1,9.714882E-3],"split_indices":[5,6,13,11,11,0,0,0,0,9,0,0,0],"split_type":[0,0,0,0,0,0,0,0,0,0,0,0,0],"sum_hessian":[1.1446516E1,9.3063345E0,2.1401815E0,4.8577094E0,4.4486246E0,1.1144629E0,1.0257186E0,3.0049193E0,1.8527901E0,2.81372E0,1.6349049E0,1.0806535E0,1.7330663E0],"tree_param":{"num_deleted":"0","num_feature":"16","num_nodes":"13","size_leaf_vector":"1"}},{"base_weights":[4.3222446E-2,2.7341896E-1,-5.6746393E-1,-4.6980035E-2,5.059097E-1,-7.179018E-2,-8.24792E-3,9.73401E-2,1.8616085E-1,9.5783174E-2,-1.9703245E-2],"categories":[],"categories_nodes":[],"categories_segments":[],"categories_sizes":[],"default_left":[0,0,0,0,0,0,0,0,0,0,0],"id":16,"left_children":[1,3,5,-1,7,-1,-1,-1,9,-1,-1],"loss_changes":[1.8773059E0,1.8915865E0,2.0919383E-1,0E0,9.806181E-1,0E0,0E0,0E0,1.9191679E0,0E0,0E0],"parents":[2147483647,0,0,1,1,2,2,4,4,8,8],"right_children":[2,4,6,-1,8,-1,-1,-1,10,-1,-1],"split_conditions":[9.08E1,1.599E2,1.842E2,-4.6980035E-2,1.641E2,-7.179018E-2,-8.24792E-3,9.73401E-2,1.08E2,9.5783174E-2,-1.9703245E-2],"split_indices":[11,10,10,0,10,0,0,0,13,0,0],"split_type":[0,0,0,0,0,0,0,0,0,0,0],"sum_hessian":[1.1250509E1,8.571705E0,2.6788042E0,1.7992357E0,6.772469E0,1.6780361E0,1.000768E0,1.9204266E0,4.8520427E0,1.1123661E0,3.7396765E0],"tree_param":{"num_deleted":"0","num_feature":"16","num_nodes":"11","size_leaf_vector":"1"}},{"base_weights":[4.2389095E-2,-3.4829152E-1,3.878505E-1,2.1030415E-2,-6.238533E-1,6.895535E-1,-2.5245821E-2,-9.225529E-3,-7.634831E-2,1.0002043E-1,1.927044E-1,-1.8608494E-2,4.940039E-2],"categories":[],"categories_nodes":[],"categories_segments":[],"categories_sizes":[],"default_left":[0,0,0,0,0,0,0,0,0,0,0,0,0],"id":17,"left_children":[1,3,5,-1,7,9,-1,-1,-1,-1,11,-1,-1],"loss_changes":[1.7728834E0,1.0888828E0,1.5096219E0,0E0,2.5753307E-1,5.739207E-1,0E0,0E0,0E0,0E0,4.5138124E-1,0E0,0E0],"parents":[2147483647,0,0,1,1,2,2,4,4,5,5,10,10],"right_children":[2,4,6,-1,8,10,-1,-1,-1,-1,12,-1,-1],"split_conditions":[1E0,1.627E2,1E0,2.1030415E-2,3.1E1,7E1,-2.5245821E-2,-9.225529E-3,-7.634831E-2,1.0002043E-1,8.4E1,-1.8608494E-2,4.940039E-2],"split_indices":[5,10,8,0,4,0,0,0,0,0,14,0,0],"split_type":[0,0,0,0,0,0,0,0,0,0,0,0,0],"sum_hessian":[1.113498E1,5.2216496E0,5.91333E0,1.8031907E0,3.418459E0,3.967161E0,1.9461694E0,1.0565766E0,2.3618824E0,1.8176163E0,2.1495447E0,1.1217229E0,1.0278217E0],"tree_param":{"num_deleted":"0","num_feature":"16","num_nodes":"13","size_leaf_vector":"1"}},{"base_weights":[4.129238E-2,-1.579518E-1,6.563538E-1,-5.435317E-1,2.6770136E-1,1.6338136E-2,8.1591174E-2,-7.933601E-2,-6.4161787E-4,7.371778E-2,-1.8178646E-1,3.1623505E-2,-6.358784E-2],"categories":[],"categories_nodes":[],"categories_segments":[],"categories_sizes":[],"default_left":[0,0,0,0,0,0,0,0,0,0,0,0,0],"id":18,"left_children":[1,3,5,7,9,-1,-1,-1,-1,-1,11,-1,-1],"loss_changes":[1.5745511E0,1.7656937E0,1.1295247E-1,7.34239E-1,1.2655349E0,0E0,0E0,0E0,0E0,0E0,1.0019968E0,0E0,0E0],"parents":[2147483647,0,0,1,1,2,2,3,3,4,4,10,10],"right_children":[2,4,6,8,10,-1,-1,-1,-1,-1,12,-1,-1],"split_conditions":[1.1E1,3E0,8.5E1,8.97E1,2.82E1,1.6338136E-2,8.1591174E-2,-7.933601E-2,-6.4161787E-4,7.371778E-2,7.1E1,3.1623505E-2,-6.358784E-2],"split_indices":[5,6,14,11,12,0,0,0,0,0,0,0,0],"split_type":[0,0,0,0,0,0,0,0,0,0,0,0,0],"sum_hessian":[1.1002529E1,8.871781E0,2.1307485E0,4.5097065E0,4.3620744E0,1.0159177E0,1.1148309E0,2.7524056E0,1.7573011E0,1.8205379E0,2.5415363E0,1.3569264E0,1.1846099E0],"tree_param":{"num_deleted":"0","num_feature":"16","num_nodes":"13","size_leaf_vector":"1"}},{"base_weights":[4.1849166E-2,2.5711346E-1,-5.381756E-1,-4.5914672E-2,4.7995296E-1,-9.14109E-3,-6.800174E-2,6.6674316E-1,-1.3586334E-2,9.676564E-2,1.3148953E-2],"categories":[],"categories_nodes":[],"categories_segments":[],"categories_sizes":[],"default_left":[0,0,0,0,0,0,0,0,0,0,0],"id":19,"left_children":[1,3,5,-1,7,-1,-1,9,-1,-1,-1],"loss_changes":[1.6151034E0,1.7051675E0,1.6119397E-1,0E0,9.629742E-1,0E0,0E0,8.372748E-1,0E0,0E0,0E0],"parents":[2147483647,0,0,1,1,2,2,4,4,7,7],"right_children":[2,4,6,-1,8,-1,-1,10,-1,-1,-1],"split_conditions":[9.08E1,1.599E2,2.82E1,-4.5914672E-2,1.32E2,-9.14109E-3,-6.800174E-2,7E1,-1.3586334E-2,9.676564E-2,1.3148953E-2],"split_indices":[11,10,12,0,13,0,0,0,0,0,0],"split_type":[0,0,0,0,0,0,0,0,0,0,0],"sum_hessian":[1.0827229E1,8.302607E0,2.524622E0,1.7184986E0,6.584108E0,1.0046604E0,1.5199616E0,4.98834E0,1.595768E0,2.67605E0,2.3122897E0],"tree_param":{"num_deleted":"0","num_feature":"16","num_nodes":"11","size_leaf_vector":"1"}},{"base_weights":[3.486978E-2,-1.806561E-1,5.625336E-1,-7.206986E-2,8.221537E-2,5.7021156E-3,7.710641E-2,3.7099153E-1,-6.5512896E-2,8.79729E-2,-1.388705E-2],"categories":[],"categories_nodes":[],"categories_segments":[],"categories_sizes":[],"default_left":[0,0,0,0,0,0,0,0,0,0,0],"id":20,"left_children":[1,3,5,-1,7,-1,-1,9,-1,-1,-1],"loss_changes":[1.4413726E0,1.3541011E0,3.4179413E-1,0E0,1.7404575E0,0E0,0E0,1.5985465E0,0E0,0E0,0E0],"parents":[2147483647,0,0,1,1,2,2,4,4,7,7],"right_children":[2,4,6,-1,8,-1,-1,10,-1,-1,-1],"split_conditions":[3E0,2E0,8.5E1,-7.206986E-2,8.5E1,5.7021156E-3,7.710641E-2,7E1,-6.5512896E-2,8.79729E-2,-1.388705E-2],"split_indices":[5,6,14,0,14,0,0,0,0,0,0],"split_type":[0,0,0,0,0,0,0,0,0,0,0],"sum_hessian":[1.0780568E1,8.121107E0,2.6594605E0,2.0886176E0,6.03249E0,1.1485727E0,1.5108879E0,4.691822E0,1.3406675E0,1.9853879E0,2.7064342E0],"tree_param":{"num_deleted":"0","num_feature":"16","num_nodes":"11","size_leaf_vector":"1"}},{"base_weights":[3.266007E-2,2.3035386E-1,-5.130902E-1,5.761727E-1,-1.7862627E-1,-6.5556616E-2,-9.65895E-3,9.033784E-2,-1.1576175E-2,-4.8705694E-1,4.991431E-2,2.9440648E-3,-7.548464E-2],"categories":[],"categories_nodes":[],"categories_segments":[],"categories_sizes":[],"default_left":[0,0,0,0,0,0,0,0,0,0,0,0,0],"id":21,"left_children":[1,3,5,7,9,-1,-1,-1,-1,11,-1,-1,-1],"loss_changes":[1.3720559E0,1.4071202E0,1.384514E-1,1.2893846E0,1.285867E0,0E0,0E0,0E0,0E0,5.663837E-1,0E0,0E0,0E0],"parents":[2147483647,0,0,1,1,2,2,3,3,4,4,9,9],"right_children":[2,4,6,8,10,-1,-1,-1,-1,12,-1,-1,-1],"split_conditions":[9.08E1,7.1E1,1.828E2,8.5E1,2.6634752E6,-6.5556616E-2,-9.65895E-3,9.033784E-2,-1.1576175E-2,1.21E2,4.991431E-2,2.9440648E-3,-7.548464E-2],"split_indices":[11,0,10,14,2,0,0,0,0,13,0,0,0],"split_type":[0,0,0,0,0,0,0,0,0,0,0,0,0],"sum_hessian":[1.0621529E1,8.22133E0,2.4001992E0,4.2331376E0,3.988192E0,1.3607353E0,1.0394639E0,2.6665711E0,1.5665663E0,2.93428E0,1.0539123E0,1.3057947E0,1.6284851E0],"tree_param":{"num_deleted":"0","num_feature":"16","num_nodes":"13","size_leaf_vector":"1"}},{"base_weights":[2.7209496E-2,-1.6056694E-1,5.928508E-1,-5.2419204E-1,2.3587313E-1,7.41378E-2,1.4386699E-2,-7.783146E-2,1.2665397E-3,6.608499E-2,-1.8476659E-1,2.5016535E-2,-5.8986764E-2],"categories":[],"categories_nodes":[],"categories_segments":[],"categories_sizes":[],"default_left":[0,0,0,0,0,0,0,0,0,0,0,0,0],"id":22,"left_children":[1,3,5,7,9,-1,-1,-1,-1,-1,11,-1,-1],"loss_changes":[1.3205311E0,1.4856395E0,9.929359E-2,7.2451186E-1,1.0534114E0,0E0,0E0,0E0,0E0,0E0,7.465699E-1,0E0,0E0],"parents":[2147483647,0,0,1,1,2,2,3,3,4,4,10,10],"right_children":[2,4,6,8,10,-1,-1,-1,-1,-1,12,-1,-1],"split_conditions":[1.1E1,3E0,1.32E2,8.97E1,2.82E1,7.41378E-2,1.4386699E-2,-7.783146E-2,1.2665397E-3,6.608499E-2,7.1E1,2.5016535E-2,-5.8986764E-2],"split_indices":[5,6,13,11,12,0,0,0,0,0,0,0,0],"split_type":[0,0,0,0,0,0,0,0,0,0,0,0,0],"sum_hessian":[1.0536497E1,8.448105E0,2.088392E0,4.2383413E0,4.209764E0,1.079913E0,1.0084791E0,2.5714023E0,1.666939E0,1.8100212E0,2.3997426E0,1.341702E0,1.0580406E0],"tree_param":{"num_deleted":"0","num_feature":"16","num_nodes":"13","size_leaf_vector":"1"}},{"base_weights":[2.7957743E-2,2.2098275E-1,-5.016946E-1,-4.1714717E-2,4.1310903E-1,-6.4131655E-2,-9.693949E-3,5.711367E-1,-1.2264027E-2,7.145367E-2,-1.6592443E-3],"categories":[],"categories_nodes":[],"categories_segments":[],"categories_sizes":[],"default_left":[0,0,0,0,0,0,0,0,0,0,0],"id":23,"left_children":[1,3,5,-1,7,-1,-1,9,-1,-1,-1],"loss_changes":[1.272575E0,1.2784617E0,1.2662905E-1,0E0,6.996707E-1,0E0,0E0,5.10766E-1,0E0,0E0,0E0],"parents":[2147483647,0,0,1,1,2,2,4,4,7,7],"right_children":[2,4,6,-1,8,-1,-1,10,-1,-1,-1],"split_conditions":[9.08E1,1.599E2,1.828E2,-4.1714717E-2,1.32E2,-6.4131655E-2,-9.693949E-3,4.6126406E5,-1.2264027E-2,7.145367E-2,-1.6592443E-3],"split_indices":[11,10,10,0,13,0,0,3,0,0,0],"split_type":[0,0,0,0,0,0,0,0,0,0,0],"sum_hessian":[1.0362998E1,8.022191E0,2.340807E0,1.5853575E0,6.4368334E0,1.3058821E0,1.0349247E0,4.9196525E0,1.5171808E0,3.7812963E0,1.1383564E0],"tree_param":{"num_deleted":"0","num_feature":"16","num_nodes":"11","size_leaf_vector":"1"}},{"base_weights":[1.959249E-2,-1.8711321E-1,5.1519924E-1,-6.902977E-2,5.1536128E-2,2.5638537E-3,7.252573E-2,3.162375E-1,-6.319759E-2,7.518578E-2,-1.11976E-2],"categories":[],"categories_nodes":[],"categories_segments":[],"categories_sizes":[],"default_left":[0,0,0,0,0,0,0,0,0,0,0],"id":24,"left_children":[1,3,5,-1,7,-1,-1,9,-1,-1,-1],"loss_changes":[1.2568507E0,1.0835778E0,3.51654E-1,0E0,1.4392325E0,0E0,0E0,1.129623E0,0E0,0E0,0E0],"parents":[2147483647,0,0,1,1,2,2,4,4,7,7],"right_children":[2,4,6,-1,8,-1,-1,10,-1,-1,-1],"split_conditions":[3E0,2E0,8.5E1,-6.902977E-2,8.5E1,2.5638537E-3,7.252573E-2,1.7094632E6,-6.319759E-2,7.518578E-2,-1.11976E-2],"split_indices":[5,6,14,0,14,0,0,2,0,0,0],"split_type":[0,0,0,0,0,0,0,0,0,0,0],"sum_hessian":[1.0327572E1,7.7271986E0,2.6003728E0,1.8770276E0,5.850171E0,1.1176456E0,1.4827273E0,4.604382E0,1.245789E0,1.9077908E0,2.6965911E0],"tree_param":{"num_deleted":"0","num_feature":"16","num_nodes":"11","size_leaf_vector":"1"}},{"base_weights":[1.7698148E-2,-1.6028598E-1,5.430679E-1,-5.056236E-1,2.0805915E-1,6.8225674E-2,1.29795885E-2,-7.6221175E-2,2.055966E-3,5.882603E-2,-1.777593E-1,-3.9402723E-2,1.5852975E-2],"categories":[],"categories_nodes":[],"categories_segments":[],"categories_sizes":[],"default_left":[0,0,0,0,0,0,0,0,0,0,0,0,0],"id":25,"left_children":[1,3,5,7,9,-1,-1,-1,-1,-1,11,-1,-1],"loss_changes":[1.1349537E0,1.2682115E0,8.768129E-2,6.9213235E-1,8.5745716E-1,0E0,0E0,0E0,0E0,0E0,3.035897E-1,0E0,0E0],"parents":[2147483647,0,0,1,1,2,2,3,3,4,4,10,10],"right_children":[2,4,6,8,10,-1,-1,-1,-1,-1,12,-1,-1],"split_conditions":[1.1E1,3E0,1.32E2,8.97E1,2.82E1,6.8225674E-2,1.29795885E-2,-7.6221175E-2,2.055966E-3,5.882603E-2,1.1E2,-3.9402723E-2,1.5852975E-2],"split_indices":[5,6,13,11,12,0,0,0,0,0,4,0,0],"split_type":[0,0,0,0,0,0,0,0,0,0,0,0,0],"sum_hessian":[1.0206673E1,8.142929E0,2.0637436E0,4.010367E0,4.132562E0,1.0569121E0,1.0068315E0,2.3942616E0,1.6161054E0,1.8171556E0,2.3154063E0,1.3046756E0,1.0107309E0],"tree_param":{"num_deleted":"0","num_feature":"16","num_nodes":"13","size_leaf_vector":"1"}},{"base_weights":[1.9357419E-2,2.0697731E-1,-4.912317E-1,5.1949906E-1,-1.7664132E-1,-6.299084E-2,-9.145247E-3,7.948392E-2,-9.168883E-3,-4.6859217E-1,4.4637423E-2,1.6831768E-3,-7.167159E-2],"categories":[],"categories_nodes":[],"categories_segments":[],"categories_sizes":[],"default_left":[0,0,0,0,0,0,0,0,0,0,0,0,0],"id":26,"left_children":[1,3,5,7,9,-1,-1,-1,-1,11,-1,-1,-1],"loss_changes":[1.160352E0,1.1450155E0,1.23466074E-1,9.302813E-1,1.0622749E0,0E0,0E0,0E0,0E0,4.55485E-1,0E0,0E0,0E0],"parents":[2147483647,0,0,1,1,2,2,3,3,4,4,9,9],"right_children":[2,4,6,8,10,-1,-1,-1,-1,12,-1,-1,-1],"split_conditions":[9.08E1,7.1E1,1.828E2,8.5E1,2.6634752E6,-6.299084E-2,-9.145247E-3,7.948392E-2,-9.168883E-3,1.21E2,4.4637423E-2,1.6831768E-3,-7.167159E-2],"split_indices":[11,0,10,14,2,0,0,0,0,13,0,0,0],"split_type":[0,0,0,0,0,0,0,0,0,0,0,0,0],"sum_hessian":[1.0051303E1,7.7852015E0,2.2661014E0,4.094961E0,3.6902401E0,1.255091E0,1.0110105E0,2.6159797E0,1.4789815E0,2.6815197E0,1.0087205E0,1.2223344E0,1.4591854E0],"tree_param":{"num_deleted":"0","num_feature":"16","num_nodes":"13","size_leaf_vector":"1"}},{"base_weights":[1.4527027E-2,-1.785386E-1,4.6713257E-1,3.8053982E-2,-6.79846E-2,1.9307992E-4,6.744825E-2,-3.7097624E-1,4.6476156E-1,-7.103932E-2,2.7129149E-2,7.750575E-2,-9.476691E-3],"categories":[],"categories_nodes":[],"categories_segments":[],"categories_sizes":[],"default_left":[0,0,0,0,0,0,0,0,0,0,0,0,0],"id":27,"left_children":[1,3,5,7,-1,-1,-1,9,11,-1,-1,-1,-1],"loss_changes":[1.04069E0,9.3825024E-1,3.4134847E-1,1.3618267E0,0E0,0E0,0E0,1.0724547E0,7.295863E-1,0E0,0E0,0E0,0E0],"parents":[2147483647,0,0,1,1,2,2,3,3,7,7,8,8],"right_children":[2,4,6,8,-1,-1,-1,10,12,-1,-1,-1,-1],"split_conditions":[3E0,8.5E1,8.5E1,3E0,-6.79846E-2,1.9307992E-4,6.744825E-2,8E1,1E0,-7.103932E-2,2.7129149E-2,7.750575E-2,-9.476691E-3],"split_indices":[5,14,14,6,0,0,0,14,9,0,0,0,0],"split_type":[0,0,0,0,0,0,0,0,0,0,0,0,0],"sum_hessian":[9.955145E0,7.4028716E0,2.5522738E0,5.8146925E0,1.588179E0,1.0980486E0,1.4542251E0,3.035527E0,2.7791655E0,1.9165987E0,1.1189283E0,1.5399581E0,1.2392075E0],"tree_param":{"num_deleted":"0","num_feature":"16","num_nodes":"13","size_leaf_vector":"1"}},{"base_weights":[1.47671355E-2,1.9351858E-1,-4.743534E-1,-5.8200836E-2,6.492361E-2,-5.9090506E-2,-1.11250235E-2,1.6021056E-1,-5.862822E-2,5.8126178E-2,-3.0348301E-2],"categories":[],"categories_nodes":[],"categories_segments":[],"categories_sizes":[],"default_left":[0,0,0,0,0,0,0,0,0,0,0],"id":28,"left_children":[1,3,5,7,-1,-1,-1,9,-1,-1,-1],"loss_changes":[1.0345087E0,1.0250951E0,6.865311E-2,8.3925545E-1,0E0,0E0,0E0,1.2222476E0,0E0,0E0,0E0],"parents":[2147483647,0,0,1,1,2,2,3,3,7,7],"right_children":[2,4,6,8,-1,-1,-1,10,-1,-1,-1],"split_conditions":[9.08E1,3E0,7E1,8.5E1,6.492361E-2,-5.9090506E-2,-1.11250235E-2,7E1,-5.862822E-2,5.8126178E-2,-3.0348301E-2],"split_indices":[11,5,4,14,0,0,0,0,0,0,0],"split_type":[0,0,0,0,0,0,0,0,0,0,0],"sum_hessian":[9.782359E0,7.6067796E0,2.17558E0,5.4620547E0,2.1447248E0,1.1720053E0,1.0035746E0,4.356747E0,1.1053079E0,2.1504817E0,2.2062652E0],"tree_param":{"num_deleted":"0","num_feature":"16","num_nodes":"11","size_leaf_vector":"1"}},{"base_weights":[9.629934E-3,1.7915861E-1,-4.5878637E-1,-3.8226455E-2,3.460022E-1,-5.8080297E-2,-1.0293214E-2,6.8826966E-2,9.786952E-2,7.177348E-2,-2.3083253E-2],"categories":[],"categories_nodes":[],"categories_segments":[],"categories_sizes":[],"default_left":[0,0,0,0,0,0,0,0,0,0,0],"id":29,"left_children":[1,3,5,-1,7,-1,-1,-1,9,-1,-1],"loss_changes":[9.281501E-1,9.323186E-1,7.533091E-2,0E0,5.364199E-1,0E0,0E0,0E0,1.24295E0,0E0,0E0],"parents":[2147483647,0,0,1,1,2,2,4,4,8,8],"right_children":[2,4,6,-1,8,-1,-1,-1,10,-1,-1],"split_conditions":[9.08E1,1.599E2,8.7E1,-3.8226455E-2,1.641E2,-5.8080297E-2,-1.0293214E-2,6.8826966E-2,1.08E2,7.177348E-2,-2.3083253E-2],"split_indices":[11,10,15,0,10,0,0,0,13,0,0],"split_type":[0,0,0,0,0,0,0,0,0,0,0],"sum_hessian":[9.652999E0,7.5412145E0,2.111785E0,1.4318686E0,6.109346E0,1.1018434E0,1.0099415E0,1.8221395E0,4.2872066E0,1.0754967E0,3.21171E0],"tree_param":{"num_deleted":"0","num_feature":"16","num_nodes":"11","size_leaf_vector":"1"}},{"base_weights":[9.530101E-3,2.2124153E-1,-3.5403258E-1,-8.9563444E-2,7.9765886E-2,-7.295909E-2,2.4483185E-2,6.269654E-2,-4.3429065E-1,3.8026478E-3,-7.198476E-2],"categories":[],"categories_nodes":[],"categories_segments":[],"categories_sizes":[],"default_left":[0,0,0,0,0,0,0,0,0,0,0],"id":30,"left_children":[1,3,5,7,-1,-1,-1,-1,9,-1,-1],"loss_changes":[8.8908696E-1,1.3743044E0,1.1369783E0,1.6614025E0,0E0,0E0,0E0,0E0,6.1917084E-1,0E0,0E0],"parents":[2147483647,0,0,1,1,2,2,3,3,8,8],"right_children":[2,4,6,8,-1,-1,-1,-1,10,-1,-1],"split_conditions":[1E0,1.05E2,3.3705556E5,4.9E1,7.9765886E-2,-7.295909E-2,2.4483185E-2,6.269654E-2,2.81E1,3.8026478E-3,-7.198476E-2],"split_indices":[8,4,3,0,0,0,0,0,12,0,0],"split_type":[0,0,0,0,0,0,0,0,0,0,0],"sum_hessian":[9.533406E0,6.2723346E0,3.2610712E0,4.6237974E0,1.6485372E0,1.870044E0,1.3910273E0,1.2359983E0,3.3877993E0,1.6030897E0,1.7847096E0],"tree_param":{"num_deleted":"0","num_feature":"16","num_nodes":"11","size_leaf_vector":"1"}},{"base_weights":[1.0454305E-2,-2.941063E-1,2.5616172E-1,1.7318157E-2,-5.2911776E-1,-3.0729478E-2,4.5705143E-1,-8.57544E-3,-6.6665746E-2,-1.3504544E-2,7.307707E-1,8.539041E-2,2.338549E-2],"categories":[],"categories_nodes":[],"categories_segments":[],"categories_sizes":[],"default_left":[0,0,0,0,0,0,0,0,0,0,0,0,0],"id":31,"left_children":[1,3,5,-1,7,-1,9,-1,-1,-1,11,-1,-1],"loss_changes":[8.498715E-1,6.5029037E-1,8.493818E-1,0E0,1.6427422E-1,0E0,9.121089E-1,0E0,0E0,0E0,1.9865632E-2,0E0,0E0],"parents":[2147483647,0,0,1,1,2,2,4,4,6,6,10,10],"right_children":[2,4,6,-1,8,-1,10,-1,-1,-1,12,-1,-1],"split_conditions":[1E0,1.627E2,3.4353227E4,1.7318157E-2,3.6E1,-3.0729478E-2,8.8E1,-8.57544E-3,-6.6665746E-2,-1.3504544E-2,2.82E1,8.539041E-2,2.338549E-2],"split_indices":[5,10,3,0,4,0,4,0,0,0,12,0,0],"split_type":[0,0,0,0,0,0,0,0,0,0,0,0,0],"sum_hessian":[9.350177E0,4.0871153E0,5.2630615E0,1.4557168E0,2.6313987E0,1.2440563E0,4.0190053E0,1.0074244E0,1.6239743E0,1.4307345E0,2.5882707E0,1.4985332E0,1.0897373E0],"tree_param":{"num_deleted":"0","num_feature":"16","num_nodes":"13","size_leaf_vector":"1"}},{"base_weights":[9.893535E-3,2.1063878E-1,-3.389101E-1,-7.6880485E-2,7.276979E-2,-7.080641E-2,2.282518E-2,6.0287077E-2,-4.1776362E-1,1.334654E-2,-6.3044064E-2],"categories":[],"categories_nodes":[],"categories_segments":[],"categories_sizes":[],"default_left":[0,0,0,0,0,0,0,0,0,0,0],"id":32,"left_children":[1,3,5,7,-1,-1,-1,-1,9,-1,-1],"loss_changes":[7.868292E-1,1.1117451E0,1.0233175E0,1.5189836E0,0E0,0E0,0E0,0E0,5.8035934E-1,0E0,0E0],"parents":[2147483647,0,0,1,1,2,2,3,3,8,8],"right_children":[2,4,6,8,-1,-1,-1,-1,10,-1,-1],"split_conditions":[1E0,1.05E2,3.3705556E5,4.9E1,7.276979E-2,-7.080641E-2,2.282518E-2,6.0287077E-2,2.8E1,1.334654E-2,-6.3044064E-2],"split_indices":[8,4,3,0,0,0,0,0,12,0,0],"split_type":[0,0,0,0,0,0,0,0,0,0,0],"sum_hessian":[9.217577E0,6.101895E0,3.1156826E0,4.468451E0,1.6334438E0,1.736801E0,1.3788817E0,1.2357334E0,3.2327175E0,1.0037051E0,2.2290123E0],"tree_param":{"num_deleted":"0","num_feature":"16","num_nodes":"11","size_leaf_vector":"1"}},{"base_weights":[1.1915696E-2,-2.8059623E-1,2.450613E-1,1.5657326E-2,-5.0638485E-1,-2.8611023E-2,4.3106818E-1,-8.814915E-3,-6.41216E-2,-1.2644802E-2,6.887216E-1,7.989781E-2,2.2170722E-2],"categories":[],"categories_nodes":[],"categories_segments":[],"categories_sizes":[],"default_left":[0,0,0,0,0,0,0,0,0,0,0,0,0],"id":33,"left_children":[1,3,5,-1,7,-1,9,-1,-1,-1,11,-1,-1],"loss_changes":[7.5416887E-1,5.653044E-1,7.286358E-1,0E0,1.3989002E-1,0E0,7.9618657E-1,0E0,0E0,0E0,4.691124E-3,0E0,0E0],"parents":[2147483647,0,0,1,1,2,2,4,4,6,6,10,10],"right_children":[2,4,6,-1,8,-1,10,-1,-1,-1,12,-1,-1],"split_conditions":[1E0,1.627E2,3.4353227E4,1.5657326E-2,3.8E1,-2.8611023E-2,8.8E1,-8.814915E-3,-6.41216E-2,-1.2644802E-2,2.82E1,7.989781E-2,2.2170722E-2],"split_indices":[5,10,3,0,4,0,4,0,0,0,12,0,0],"split_type":[0,0,0,0,0,0,0,0,0,0,0,0,0],"sum_hessian":[9.05025E0,3.9238005E0,5.1264496E0,1.440762E0,2.4830384E0,1.1900129E0,3.9364367E0,1.0085057E0,1.4745327E0,1.4051576E0,2.531279E0,1.4727575E0,1.0585215E0],"tree_param":{"num_deleted":"0","num_feature":"16","num_nodes":"13","size_leaf_vector":"1"}},{"base_weights":[1.0984909E-2,2.0229639E-1,-3.2523552E-1,-6.263579E-2,6.654679E-2,-6.875546E-2,2.1310715E-2,5.7992738E-2,-3.9795175E-1,4.0750876E-3,-6.756702E-2],"categories":[],"categories_nodes":[],"categories_segments":[],"categories_sizes":[],"default_left":[0,0,0,0,0,0,0,0,0,0,0],"id":34,"left_children":[1,3,5,7,-1,-1,-1,-1,9,-1,-1],"loss_changes":[7.0432687E-1,8.937073E-1,9.2352E-1,1.3793976E0,0E0,0E0,0E0,0E0,5.2657413E-1,0E0,0E0],"parents":[2147483647,0,0,1,1,2,2,3,3,8,8],"right_children":[2,4,6,8,-1,-1,-1,-1,10,-1,-1],"split_conditions":[1E0,1.05E2,3.3705556E5,4.9E1,6.654679E-2,-6.875546E-2,2.1310715E-2,5.7992738E-2,2.81E1,4.0750876E-3,-6.756702E-2],"split_indices":[8,4,3,0,0,0,0,0,12,0,0],"split_type":[0,0,0,0,0,0,0,0,0,0,0],"sum_hessian":[8.927003E0,5.94346E0,2.9835432E0,4.3309445E0,1.6125152E0,1.6176513E0,1.3658918E0,1.2349415E0,3.0960033E0,1.530922E0,1.5650812E0],"tree_param":{"num_deleted":"0","num_feature":"16","num_nodes":"11","size_leaf_vector":"1"}},{"base_weights":[1.0823583E-2,-2.6811764E-1,2.3122296E-1,3.2165915E-2,-6.074346E-2,4.3361768E-1,-2.116208E-2,-2.6679907E-2,3.8698174E-2,6.2435025E-1,-7.121369E-3,1.9685354E-2,7.447296E-2],"categories":[],"categories_nodes":[],"categories_segments":[],"categories_sizes":[],"default_left":[0,0,0,0,0,0,0,0,0,0,0,0,0],"id":35,"left_children":[1,3,5,7,-1,9,-1,-1,-1,11,-1,-1,-1],"loss_changes":[6.624573E-1,5.0597155E-1,6.289102E-1,4.72651E-1,0E0,4.7208786E-1,0E0,0E0,0E0,2.4543047E-2,0E0,0E0,0E0],"parents":[2147483647,0,0,1,1,2,2,3,3,5,5,9,9],"right_children":[2,4,6,8,-1,10,-1,-1,-1,12,-1,-1,-1],"split_conditions":[1E0,8.1E1,1E0,3E0,-6.074346E-2,1.32E2,-2.116208E-2,-2.6679907E-2,3.8698174E-2,7.8E1,-7.121369E-3,1.9685354E-2,7.447296E-2],"split_indices":[5,14,8,6,0,13,0,0,0,14,0,0,0],"split_type":[0,0,0,0,0,0,0,0,0,0,0,0,0],"sum_hessian":[8.767035E0,3.7740383E0,4.9929957E0,2.482403E0,1.2916355E0,3.44112E0,1.5518757E0,1.4818615E0,1.0005416E0,2.3256905E0,1.1154294E0,1.0900236E0,1.235667E0],"tree_param":{"num_deleted":"0","num_feature":"16","num_nodes":"13","size_leaf_vector":"1"}},{"base_weights":[1.1373101E-2,3.3600262E-1,-1.767545E-1,5.5324823E-2,-7.5132125E-3,-4.683869E-1,2.9578787E-1,1.1380457E-2,-6.670637E-2,6.67867E-2,-2.5347963E-2],"categories":[],"categories_nodes":[],"categories_segments":[],"categories_sizes":[],"default_left":[0,0,0,0,0,0,0,0,0,0,0],"id":36,"left_children":[1,3,5,-1,-1,7,9,-1,-1,-1,-1],"loss_changes":[6.4891416E-1,3.886832E-1,1.0710448E0,0E0,0E0,6.046735E-1,8.223146E-1,0E0,0E0,0E0,0E0],"parents":[2147483647,0,0,1,1,2,2,5,5,6,6],"right_children":[2,4,6,-1,-1,8,10,-1,-1,-1,-1],"split_conditions":[2.79E1,1E0,1.05E2,5.5324823E-2,-7.5132125E-3,5.5E1,1E0,1.1380457E-2,-6.670637E-2,6.67867E-2,-2.5347963E-2],"split_indices":[12,9,4,0,0,0,8,0,0,0,0],"split_type":[0,0,0,0,0,0,0,0,0,0,0],"sum_hessian":[8.652974E0,2.8863337E0,5.76664E0,1.6623031E0,1.2240306E0,3.5713522E0,2.195288E0,1.0173507E0,2.5540016E0,1.1800128E0,1.015275E0],"tree_param":{"num_deleted":"0","num_feature":"16","num_nodes":"11","size_leaf_vector":"1"}},{"base_weights":[1.3487094E-2,2.56637E-1,-2.3295456E-1,-1.4326E-1,6.143983E-2,-4.436055E-1,2.4161806E-2,4.030965E-2,-6.057028E-2,3.5223085E-3,-6.223472E-2],"categories":[],"categories_nodes":[],"categories_segments":[],"categories_sizes":[],"default_left":[0,0,0,0,0,0,0,0,0,0,0],"id":37,"left_children":[1,3,5,7,-1,9,-1,-1,-1,-1,-1],"loss_changes":[6.306258E-1,8.42131E-1,6.325551E-1,1.0778943E0,0E0,3.6361355E-1,0E0,0E0,0E0,0E0,0E0],"parents":[2147483647,0,0,1,1,2,2,3,3,5,5],"right_children":[2,4,6,8,-1,10,-1,-1,-1,-1,-1],"split_conditions":[7.1E1,1.6831878E6,1.24E2,4.8E1,6.143983E-2,2.79E1,2.4161806E-2,4.030965E-2,-6.057028E-2,3.5223085E-3,-6.223472E-2],"split_indices":[0,2,4,0,0,12,0,0,0,0,0],"split_type":[0,0,0,0,0,0,0,0,0,0,0],"sum_hessian":[8.526359E0,4.2710185E0,4.2553406E0,2.2998579E0,1.9711607E0,2.9923594E0,1.262981E0,1.1131045E0,1.1867533E0,1.0316432E0,1.9607162E0],"tree_param":{"num_deleted":"0","num_feature":"16","num_nodes":"11","size_leaf_vector":"1"}},{"base_weights":[1.2515367E-2,-2.6014915E-1,2.2482204E-1,3.327491E-2,-5.8979895E-2,-2.5752349E-2,3.9088112E-1,3.0350933E-2,-2.8265292E-2,-1.2894322E-2,6.356075E-2],"categories":[],"categories_nodes":[],"categories_segments":[],"categories_sizes":[],"default_left":[0,0,0,0,0,0,0,0,0,0,0],"id":38,"left_children":[1,3,5,7,-1,-1,9,-1,-1,-1,-1],"loss_changes":[6.028141E-1,4.6263155E-1,5.6707615E-1,3.7347558E-1,0E0,0E0,6.835454E-1,0E0,0E0,0E0,0E0],"parents":[2147483647,0,0,1,1,2,2,3,3,6,6],"right_children":[2,4,6,8,-1,-1,10,-1,-1,-1,-1],"split_conditions":[1E0,8.1E1,3.4353227E4,1.2652189E6,-5.8979895E-2,-2.5752349E-2,8.8E1,3.0350933E-2,-2.8265292E-2,-1.2894322E-2,6.356075E-2],"split_indices":[5,14,3,2,0,0,4,0,0,0,0],"split_type":[0,0,0,0,0,0,0,0,0,0,0],"sum_hessian":[8.403021E0,3.5799549E0,4.8230658E0,2.3697128E0,1.2102419E0,1.0941461E0,3.7289197E0,1.2984062E0,1.0713067E0,1.3450357E0,2.383884E0],"tree_param":{"num_deleted":"0","num_feature":"16","num_nodes":"11","size_leaf_vector":"1"}},{"base_weights":[7.73902E-3,1.8815838E-1,-3.0579793E-1,3.6102435E-1,-3.7602607E-2,-6.552771E-2,1.9226102E-2,-6.3567716E-3,5.5329466E-1,7.784885E-2,-3.838655E-3],"categories":[],"categories_nodes":[],"categories_segments":[],"categories_sizes":[],"default_left":[0,0,0,0,0,0,0,0,0,0,0],"id":39,"left_children":[1,3,5,7,-1,-1,-1,-1,9,-1,-1],"loss_changes":[5.834877E-1,7.7170837E-1,7.8339833E-1,4.8429757E-1,0E0,0E0,0E0,0E0,5.481732E-1,0E0,0E0],"parents":[2147483647,0,0,1,1,2,2,3,3,8,8],"right_children":[2,4,6,8,-1,-1,-1,-1,10,-1,-1],"split_conditions":[1E0,3.02E1,3.3705556E5,7.8E1,-3.7602607E-2,-6.552771E-2,1.9226102E-2,-6.3567716E-3,1.29E2,7.784885E-2,-3.838655E-3],"split_indices":[8,12,3,14,0,0,0,0,13,0,0],"split_type":[0,0,0,0,0,0,0,0,0,0,0],"sum_hessian":[8.297626E0,5.5207124E0,2.776913E0,4.501538E0,1.0191747E0,1.4463634E0,1.3305494E0,1.6117284E0,2.8898094E0,1.8644692E0,1.0253401E0],"tree_param":{"num_deleted":"0","num_feature":"16","num_nodes":"11","size_leaf_vector":"1"}},{"base_weights":[4.9138293E-3,2.3633201E-1,-2.3135494E-1,-1.3202907E-1,5.622033E-2,-4.3232608E-1,2.1722281E-2,3.944957E-2,-5.875795E-2,2.1806948E-3,-6.0190488E-2],"categories":[],"categories_nodes":[],"categories_segments":[],"categories_sizes":[],"default_left":[0,0,0,0,0,0,0,0,0,0,0],"id":40,"left_children":[1,3,5,7,-1,9,-1,-1,-1,-1,-1],"loss_changes":[5.581327E-1,6.919861E-1,5.502106E-1,1.0054629E0,0E0,3.0807006E-1,0E0,0E0,0E0,0E0,0E0],"parents":[2147483647,0,0,1,1,2,2,3,3,5,5],"right_children":[2,4,6,8,-1,10,-1,-1,-1,-1,-1],"split_conditions":[7.1E1,1.6831878E6,1.24E2,2.4E1,5.622033E-2,2.79E1,2.1722281E-2,3.944957E-2,-5.875795E-2,2.1806948E-3,-6.0190488E-2],"split_indices":[0,2,4,7,0,12,0,0,0,0,0],"split_type":[0,0,0,0,0,0,0,0,0,0,0],"sum_hessian":[8.207842E0,4.146349E0,4.0614924E0,2.2255058E0,1.9208431E0,2.8298821E0,1.2316105E0,1.0945036E0,1.1310023E0,1.0063297E0,1.8235525E0],"tree_param":{"num_deleted":"0","num_feature":"16","num_nodes":"11","size_leaf_vector":"1"}},{"base_weights":[4.1108774E-3,-1.3211206E-1,3.8444165E-2,-3.9787543E-1,1.3792247E-1,-6.884646E-2,1.5107636E-2,4.2778473E-2,-1.8069187E-2],"categories":[],"categories_nodes":[],"categories_segments":[],"categories_sizes":[],"default_left":[0,0,0,0,0,0,0,0,0],"id":41,"left_children":[1,3,-1,5,7,-1,-1,-1,-1],"loss_changes":[5.217301E-1,5.8858943E-1,0E0,7.429693E-1,4.865567E-1,0E0,0E0,0E0,0E0],"parents":[2147483647,0,0,1,1,3,3,4,4],"right_children":[2,4,-1,6,8,-1,-1,-1,-1],"split_conditions":[1.1E1,3E0,3.8444165E-2,8.97E1,2.82E1,-6.884646E-2,1.5107636E-2,4.2778473E-2,-1.8069187E-2],"split_indices":[5,6,0,11,12,0,0,0,0],"split_type":[0,0,0,0,0,0,0,0,0],"sum_hessian":[8.089805E0,6.4369307E0,1.6528741E0,3.0055225E0,3.431408E0,1.7990476E0,1.2064748E0,1.6173593E0,1.8140486E0],"tree_param":{"num_deleted":"0","num_feature":"16","num_nodes":"9","size_leaf_vector":"1"}},{"base_weights":[4.367313E-3,2.3029009E-1,-2.2637281E-1,-1.2002475E-1,5.3060897E-2,-5.9634972E-2,4.3834236E-2,3.735067E-2,-5.6380242E-2,4.430663E-2,-2.7077043E-2],"categories":[],"categories_nodes":[],"categories_segments":[],"categories_sizes":[],"default_left":[0,0,0,0,0,0,0,0,0,0,0],"id":42,"left_children":[1,3,5,7,-1,-1,9,-1,-1,-1,-1],"loss_changes":[5.202751E-1,5.9321845E-1,5.207065E-1,8.980348E-1,0E0,0E0,5.960677E-1,0E0,0E0,0E0,0E0],"parents":[2147483647,0,0,1,1,2,2,3,3,6,6],"right_children":[2,4,6,8,-1,-1,10,-1,-1,-1,-1],"split_conditions":[7.1E1,1.6831878E6,8.5E1,4.8E1,5.3060897E-2,-5.9634972E-2,9.1E1,3.735067E-2,-5.6380242E-2,4.430663E-2,-2.7077043E-2],"split_indices":[0,2,0,0,0,0,0,0,0,0,0],"split_type":[0,0,0,0,0,0,0,0,0,0,0],"sum_hessian":[7.980408E0,4.0332823E0,3.9471257E0,2.138784E0,1.8944985E0,1.1565403E0,2.7905855E0,1.0875981E0,1.0511858E0,1.0499175E0,1.740668E0],"tree_param":{"num_deleted":"0","num_feature":"16","num_nodes":"11","size_leaf_vector":"1"}},{"base_weights":[2.6449135E-3,1.7508325E-1,-2.9643935E-1,-5.47501E-2,5.5222232E-2,-6.27557E-2,1.677881E-2,4.905584E-2,-3.6899582E-1,1.0317054E-3,-6.0341325E-2],"categories":[],"categories_nodes":[],"categories_segments":[],"categories_sizes":[],"default_left":[0,0,0,0,0,0,0,0,0,0,0],"id":43,"left_children":[1,3,5,7,-1,-1,-1,-1,9,-1,-1],"loss_changes":[5.094219E-1,5.724684E-1,6.61059E-1,1.0029825E0,0E0,0E0,0E0,0E0,3.2755452E-1,0E0,0E0],"parents":[2147483647,0,0,1,1,2,2,3,3,8,8],"right_children":[2,4,6,8,-1,-1,-1,-1,10,-1,-1],"split_conditions":[1E0,1.05E2,3.3705556E5,4.9E1,5.5222232E-2,-6.27557E-2,1.677881E-2,4.905584E-2,2.81E1,1.0317054E-3,-6.0341325E-2],"split_indices":[8,4,3,0,0,0,0,0,12,0,0],"split_type":[0,0,0,0,0,0,0,0,0,0,0],"sum_hessian":[7.8712125E0,5.255648E0,2.6155643E0,3.7967117E0,1.4589366E0,1.3212974E0,1.294267E0,1.1829245E0,2.6137872E0,1.3634942E0,1.250293E0],"tree_param":{"num_deleted":"0","num_feature":"16","num_nodes":"11","size_leaf_vector":"1"}},{"base_weights":[1.8675943E-3,1.3541007E-1,-3.573152E-2,3.3393094E-1,-2.7620083E-2,4.8496786E-1,-1.2099475E-2,1.1427727E-3,7.086777E-2],"categories":[],"categories_nodes":[],"categories_segments":[],"categories_sizes":[],"default_left":[0,0,0,0,0,0,0,0,0],"id":44,"left_children":[1,3,-1,5,-1,7,-1,-1,-1],"loss_changes":[4.675019E-1,6.7197E-1,0E0,4.186542E-1,0E0,4.2971814E-1,0E0,0E0,0E0],"parents":[2147483647,0,0,1,1,3,3,5,5],"right_children":[2,4,-1,6,-1,8,-1,-1,-1],"split_conditions":[3.02E1,1E0,-3.573152E-2,1.32E2,-2.7620083E-2,7.8E1,-1.2099475E-2,1.1427727E-3,7.086777E-2],"split_indices":[12,8,0,13,0,14,0,0,0],"split_type":[0,0,0,0,0,0,0,0,0],"sum_hessian":[7.7377815E0,6.094777E0,1.6430044E0,4.2390137E0,1.8557638E0,3.1328566E0,1.106157E0,1.3424002E0,1.7904564E0],"tree_param":{"num_deleted":"0","num_feature":"16","num_nodes":"9","size_leaf_vector":"1"}},{"base_weights":[1.1921116E-3,1.3050467E-1,-3.6745243E-2,-3.5516273E-2,2.8308058E-1,4.099229E-1,-1.3024971E-2,5.9111066E-2,5.315054E-3],"categories":[],"categories_nodes":[],"categories_segments":[],"categories_sizes":[],"default_left":[0,0,0,0,0,0,0,0,0],"id":45,"left_children":[1,3,-1,-1,5,7,-1,-1,-1],"loss_changes":[4.6140262E-1,6.3100857E-1,0E0,0E0,3.6816078E-1,2.8114063E-1,0E0,0E0,0E0],"parents":[2147483647,0,0,1,1,4,4,5,5],"right_children":[2,4,-1,-1,6,8,-1,-1,-1],"split_conditions":[9.08E1,1.599E2,-3.6745243E-2,-3.5516273E-2,1.32E2,2.81E1,-1.3024971E-2,5.9111066E-2,5.315054E-3],"split_indices":[11,10,0,0,13,12,0,0,0],"split_type":[0,0,0,0,0,0,0,0,0],"sum_hessian":[7.6730695E0,6.1587133E0,1.5143563E0,1.1548645E0,5.003849E0,3.8351624E0,1.1686864E0,2.1078544E0,1.727308E0],"tree_param":{"num_deleted":"0","num_feature":"16","num_nodes":"9","size_leaf_vector":"1"}},{"base_weights":[-1.4626315E-3,-2.4859472E-1,1.9134784E-1,2.9480444E-2,-5.52877E-2,3.645089E-1,-1.8355934E-2,2.4118744E-2,-1.8145671E-2,5.2241582E-2,6.294228E-3],"categories":[],"categories_nodes":[],"categories_segments":[],"categories_sizes":[],"default_left":[0,0,0,0,0,0,0,0,0,0,0],"id":46,"left_children":[1,3,5,7,-1,9,-1,-1,-1,-1,-1],"loss_changes":[4.5760348E-1,3.722068E-1,4.174039E-1,1.8430762E-1,0E0,1.5893245E-1,0E0,0E0,0E0,0E0,0E0],"parents":[2147483647,0,0,1,1,2,2,3,3,5,5],"right_children":[2,4,6,8,-1,10,-1,-1,-1,-1,-1],"split_conditions":[1E0,8.1E1,1E0,1.63E2,-5.52877E-2,7E1,-1.8355934E-2,2.4118744E-2,-1.8145671E-2,5.2241582E-2,6.294228E-3],"split_indices":[5,14,8,10,0,0,0,0,0,0,0],"split_type":[0,0,0,0,0,0,0,0,0,0,0],"sum_hessian":[7.605213E0,3.206283E0,4.3989296E0,2.147164E0,1.059119E0,3.0280693E0,1.3708605E0,1.0000527E0,1.1471115E0,1.5067582E0,1.521311E0],"tree_param":{"num_deleted":"0","num_feature":"16","num_nodes":"11","size_leaf_vector":"1"}},{"base_weights":[-2.562311E-3,-1.4512168E-1,3.0686576E-2,3.2466006E-2,-5.5509772E-2,4.3497995E-2,-2.2029649E-1,9.975025E-3,-4.4945784E-2],"categories":[],"categories_nodes":[],"categories_segments":[],"categories_sizes":[],"default_left":[0,0,0,0,0,0,0,0,0],"id":47,"left_children":[1,3,-1,5,-1,-1,7,-1,-1],"loss_changes":[4.2052752E-1,4.9229753E-1,0E0,6.5438455E-1,0E0,0E0,3.40855E-1,0E0,0E0],"parents":[2147483647,0,0,1,1,3,3,6,6],"right_children":[2,4,-1,6,-1,-1,8,-1,-1],"split_conditions":[3E0,3.02E1,3.0686576E-2,1.2652189E6,-5.5509772E-2,4.3497995E-2,7E1,9.975025E-3,-4.4945784E-2],"split_indices":[5,12,0,2,0,0,0,0,0],"split_type":[0,0,0,0,0,0,0,0,0],"sum_hessian":[7.523663E0,5.5141773E0,2.0094857E0,4.49005E0,1.0241272E0,1.4538884E0,3.0361617E0,1.5024942E0,1.5336673E0],"tree_param":{"num_deleted":"0","num_feature":"16","num_nodes":"9","size_leaf_vector":"1"}},{"base_weights":[-4.568484E-3,-2.3878013E-1,1.7609921E-1,1.214547E-2,-4.2295292E-2,3.3325928E-1,-1.6616685E-2,7.741599E-3,5.3466786E-2],"categories":[],"categories_nodes":[],"categories_segments":[],"categories_sizes":[],"default_left":[0,0,0,0,0,0,0,0,0],"id":48,"left_children":[1,3,5,-1,-1,7,-1,-1,-1],"loss_changes":[3.9957264E-1,3.2364058E-1,3.4290683E-1,0E0,0E0,1.6451791E-1,0E0,0E0,0E0],"parents":[2147483647,0,0,1,1,2,2,5,5],"right_children":[2,4,6,-1,-1,8,-1,-1,-1],"split_conditions":[1E0,1.627E2,1E0,1.214547E-2,-4.2295292E-2,1.05E2,-1.6616685E-2,7.741599E-3,5.3466786E-2],"split_indices":[5,10,8,0,0,4,0,0,0],"split_type":[0,0,0,0,0,0,0,0,0],"sum_hessian":[7.449203E0,3.1038373E0,4.345366E0,1.1652306E0,1.9386066E0,2.9959948E0,1.3493711E0,1.9294479E0,1.0665469E0],"tree_param":{"num_deleted":"0","num_feature":"16","num_nodes":"9","size_leaf_vector":"1"}},{"base_weights":[-2.5507892E-3,3.6829695E-2,-1.1966743E-1,-6.213242E-2,9.995485E-2,-2.7045965E-2,3.616258E-1,-5.544947E-3,5.6282002E-2],"categories":[],"categories_nodes":[],"categories_segments":[],"categories_sizes":[],"default_left":[0,0,0,0,0,0,0,0,0],"id":49,"left_children":[1,-1,3,-1,5,-1,7,-1,-1],"loss_changes":[4.0745297E-1,0E0,8.458071E-1,0E0,6.60829E-1,0E0,3.5275745E-1,0E0,0E0],"parents":[2147483647,0,0,2,2,4,4,6,6],"right_children":[2,-1,4,-1,6,-1,8,-1,-1],"split_conditions":[4.9E1,3.6829695E-2,3.8245242E4,-6.213242E-2,8.8E1,-2.7045965E-2,2E0,-5.544947E-3,5.6282002E-2],"split_indices":[0,0,3,0,4,0,5,0,0],"split_type":[0,0,0,0,0,0,0,0,0],"sum_hessian":[7.3665533E0,1.2532998E0,6.1132536E0,1.3044949E0,4.8087587E0,1.9768271E0,2.8319314E0,1.1572834E0,1.674648E0],"tree_param":{"num_deleted":"0","num_feature":"16","num_nodes":"9","size_leaf_vector":"1"}},{"base_weights":[-2.7463057E-3,2.5309858E-1,-1.6231394E-1,4.4230342E-2,-9.383666E-3,-4.1797954E-1,2.4261886E-2,1.9568827E-3,-5.872115E-2],"categories":[],"categories_nodes":[],"categories_segments":[],"categories_sizes":[],"default_left":[0,0,0,0,0,0,0,0,0],"id":50,"left_children":[1,3,5,-1,-1,7,-1,-1,-1],"loss_changes":[3.7765276E-1,2.750271E-1,6.9014955E-1,0E0,0E0,2.9680663E-1,0E0,0E0,0E0],"parents":[2147483647,0,0,1,1,2,2,5,5],"right_children":[2,4,6,-1,-1,8,-1,-1,-1],"split_conditions":[2.79E1,1E0,1.05E2,4.4230342E-2,-9.383666E-3,2.7E1,2.4261886E-2,1.9568827E-3,-5.872115E-2],"split_indices":[12,9,4,0,0,7,0,0,0],"split_type":[0,0,0,0,0,0,0,0,0],"sum_hessian":[7.2443337E0,2.5575304E0,4.6868033E0,1.477094E0,1.0804365E0,2.8531609E0,1.8336422E0,1.042402E0,1.8107588E0],"tree_param":{"num_deleted":"0","num_feature":"16","num_nodes":"9","size_leaf_vector":"1"}},{"base_weights":[-2.4980216E-3,1.9109885E-1,-2.0338687E-1,4.0642256E-1,-1.978156E-2,-3.9724785E-1,2.0020764E-2,5.0017457E-3,5.9224207E-2,-4.5464765E-3,-5.2775588E-2],"categories":[],"categories_nodes":[],"categories_segments":[],"categories_sizes":[],"default_left":[0,0,0,0,0,0,0,0,0,0,0],"id":51,"left_children":[1,3,5,7,-1,9,-1,-1,-1,-1,-1],"loss_changes":[3.5677135E-1,4.7216046E-1,4.3130067E-1,1.914748E-1,0E0,1.3082576E-1,0E0,0E0,0E0,0E0,0E0],"parents":[2147483647,0,0,1,1,2,2,3,3,5,5],"right_children":[2,4,6,8,-1,10,-1,-1,-1,-1,-1],"split_conditions":[7.1E1,8.5E1,1.24E2,1.716E2,-1.978156E-2,2.8E1,2.0020764E-2,5.0017457E-3,5.9224207E-2,-4.5464765E-3,-5.2775588E-2],"split_indices":[0,14,4,10,0,12,0,0,0,0,0],"split_type":[0,0,0,0,0,0,0,0,0,0,0],"sum_hessian":[7.1741447E0,3.6781955E0,3.4959493E0,2.3384743E0,1.3397214E0,2.3722143E0,1.1237348E0,1.2363347E0,1.1021395E0,1.0067898E0,1.3654246E0],"tree_param":{"num_deleted":"0","num_feature":"16","num_nodes":"11","size_leaf_vector":"1"}},{"base_weights":[-1.573824E-3,-2.2422692E-1,1.7021959E-1,1.1880585E-2,-4.0321622E-2,3.2152504E-1,-1.571382E-2,7.874469E-3,5.028922E-2],"categories":[],"categories_nodes":[],"categories_segments":[],"categories_sizes":[],"default_left":[0,0,0,0,0,0,0,0,0],"id":52,"left_children":[1,3,5,-1,-1,7,-1,-1,-1],"loss_changes":[3.4868792E-1,2.914885E-1,3.0565235E-1,0E0,0E0,1.2996739E-1,0E0,0E0,0E0],"parents":[2147483647,0,0,1,1,2,2,5,5],"right_children":[2,4,6,-1,-1,8,-1,-1,-1],"split_conditions":[1E0,1.627E2,1E0,1.1880585E-2,-4.0321622E-2,1.05E2,-1.571382E-2,7.874469E-3,5.028922E-2],"split_indices":[5,10,8,0,0,4,0,0,0],"split_type":[0,0,0,0,0,0,0,0,0],"sum_hessian":[7.118102E0,2.9672198E0,4.1508822E0,1.1326802E0,1.8345397E0,2.8509736E0,1.2999086E0,1.8323456E0,1.018628E0],"tree_param":{"num_deleted":"0","num_feature":"16","num_nodes":"9","size_leaf_vector":"1"}},{"base_weights":[2.0501969E-4,3.45709E-2,-1.12393044E-1,-5.9696574E-2,9.794493E-2,-2.4598675E-2,3.3454743E-1,-6.4194403E-3,5.3311747E-2],"categories":[],"categories_nodes":[],"categories_segments":[],"categories_sizes":[],"default_left":[0,0,0,0,0,0,0,0,0],"id":53,"left_children":[1,-1,3,-1,5,-1,7,-1,-1],"loss_changes":[3.5175472E-1,0E0,7.536717E-1,0E0,5.3923976E-1,0E0,3.3117715E-1,0E0,0E0],"parents":[2147483647,0,0,2,2,4,4,6,6],"right_children":[2,-1,4,-1,6,-1,8,-1,-1],"split_conditions":[4.9E1,3.45709E-2,3.8245242E4,-5.9696574E-2,8.8E1,-2.4598675E-2,2E0,-6.4194403E-3,5.3311747E-2],"split_indices":[0,0,3,0,4,0,5,0,0],"split_type":[0,0,0,0,0,0,0,0,0],"sum_hessian":[7.0430517E0,1.2222672E0,5.820784E0,1.2054847E0,4.6152997E0,1.8648465E0,2.750453E0,1.1393263E0,1.6111267E0],"tree_param":{"num_deleted":"0","num_feature":"16","num_nodes":"9","size_leaf_vector":"1"}},{"base_weights":[-3.5828014E-4,-3.496911E-2,1.04763374E-1,2.5700045E-1,-3.1177586E-2,3.8492882E-1,-1.4138567E-2,5.2580852E-2,7.2104805E-3],"categories":[],"categories_nodes":[],"categories_segments":[],"categories_sizes":[],"default_left":[0,0,0,0,0,0,0,0,0],"id":54,"left_children":[1,-1,3,5,-1,7,-1,-1,-1],"loss_changes":[3.2794112E-1,0E0,5.1559377E-1,3.3866945E-1,0E0,1.5997589E-1,0E0,0E0,0E0],"parents":[2147483647,0,0,2,2,3,3,5,5],"right_children":[2,-1,4,6,-1,8,-1,-1,-1],"split_conditions":[1.599E2,-3.496911E-2,9.08E1,1.32E2,-3.1177586E-2,2.81E1,-1.4138567E-2,5.2580852E-2,7.2104805E-3],"split_indices":[10,0,11,13,0,12,0,0,0],"split_type":[0,0,0,0,0,0,0,0,0],"sum_hessian":[6.93265E0,1.065458E0,5.8671923E0,4.577291E0,1.2899014E0,3.4902825E0,1.0870081E0,1.9370787E0,1.5532039E0],"tree_param":{"num_deleted":"0","num_feature":"16","num_nodes":"9","size_leaf_vector":"1"}},{"base_weights":[-3.0058094E-3,1.8267463E-1,-1.9723132E-1,-1.3382375E-2,4.5657225E-2,-3.8283226E-1,1.8367901E-2,-5.3082716E-2,-7.415525E-3],"categories":[],"categories_nodes":[],"categories_segments":[],"categories_sizes":[],"default_left":[0,0,0,0,0,0,0,0,0],"id":55,"left_children":[1,3,5,-1,-1,7,-1,-1,-1],"loss_changes":[3.200437E-1,4.5513135E-1,3.7643296E-1,0E0,0E0,1.0844645E-1,0E0,0E0,0E0],"parents":[2147483647,0,0,1,1,2,2,5,5],"right_children":[2,4,6,-1,-1,8,-1,-1,-1],"split_conditions":[7.1E1,1.6831878E6,1.24E2,-1.3382375E-2,4.5657225E-2,3.3705556E5,1.8367901E-2,-5.3082716E-2,-7.415525E-3],"split_indices":[0,2,4,0,0,3,0,0,0],"split_type":[0,0,0,0,0,0,0,0,0],"sum_hessian":[6.87532E0,3.5453863E0,3.3299334E0,1.8820363E0,1.6633501E0,2.235585E0,1.0943484E0,1.0246382E0,1.2109468E0],"tree_param":{"num_deleted":"0","num_feature":"16","num_nodes":"9","size_leaf_vector":"1"}},{"base_weights":[-4.1448046E-3,3.226578E-2,-1.12900265E-1,-5.7279237E-2,8.535658E-2,-2.3894722E-2,3.1112713E-1,4.909066E-2,-6.7993104E-3],"categories":[],"categories_nodes":[],"categories_segments":[],"categories_sizes":[],"default_left":[0,0,0,0,0,0,0,0,0],"id":56,"left_children":[1,-1,3,-1,5,-1,7,-1,-1],"loss_changes":[3.1387043E-1,0E0,6.504573E-1,0E0,4.756246E-1,0E0,2.8321615E-1,0E0,0E0],"parents":[2147483647,0,0,2,2,4,4,6,6],"right_children":[2,-1,4,-1,6,-1,8,-1,-1],"split_conditions":[4.9E1,3.226578E-2,3.8245242E4,-5.7279237E-2,8.8E1,-2.3894722E-2,1E0,4.909066E-2,-6.7993104E-3],"split_indices":[0,0,3,0,4,0,8,0,0],"split_type":[0,0,0,0,0,0,0,0,0],"sum_hessian":[6.806137E0,1.2083402E0,5.597797E0,1.1171727E0,4.480624E0,1.8150569E0,2.6655672E0,1.6081313E0,1.0574359E0],"tree_param":{"num_deleted":"0","num_feature":"16","num_nodes":"9","size_leaf_vector":"1"}},{"base_weights":[-4.820777E-3,-3.406883E-2,9.7627126E-2,-1.6286813E-1,3.2349142E-1,-4.7743052E-2,1.6797366E-2,5.8332384E-2,-1.4180015E-2],"categories":[],"categories_nodes":[],"categories_segments":[],"categories_sizes":[],"default_left":[0,0,0,0,0,0,0,0,0],"id":57,"left_children":[1,-1,3,5,7,-1,-1,-1,-1],"loss_changes":[2.9856828E-1,0E0,4.460405E-1,4.7252822E-1,5.5611014E-1,0E0,0E0,0E0,0E0],"parents":[2147483647,0,0,2,2,3,3,4,4],"right_children":[2,-1,4,6,8,-1,-1,-1,-1],"split_conditions":[1.599E2,-3.406883E-2,3E0,8E1,8.26E1,-4.7743052E-2,1.6797366E-2,5.8332384E-2,-1.4180015E-2],"split_indices":[10,0,6,14,11,0,0,0,0],"split_type":[0,0,0,0,0,0,0,0,0],"sum_hessian":[6.710438E0,1.0249009E0,5.685537E0,2.7698767E0,2.9156601E0,1.1927444E0,1.5771323E0,1.7081215E0,1.2075387E0],"tree_param":{"num_deleted":"0","num_feature":"16","num_nodes":"9","size_leaf_vector":"1"}},{"base_weights":[-7.208095E-3,1.0622996E-1,-3.0731967E-2,2.605348E-1,-2.7450457E-2,-9.13304E-3,5.036589E-1,6.467472E-2,1.1173229E-2],"categories":[],"categories_nodes":[],"categories_segments":[],"categories_sizes":[],"default_left":[0,0,0,0,0,0,0,0,0],"id":58,"left_children":[1,3,-1,5,-1,-1,7,-1,-1],"loss_changes":[2.9217917E-1,4.40194E-1,0E0,4.7190773E-1,0E0,0E0,1.0146117E-1,0E0,0E0],"parents":[2147483647,0,0,1,1,3,3,6,6],"right_children":[2,4,-1,6,-1,-1,8,-1,-1],"split_conditions":[3.02E1,1.32E2,-3.0731967E-2,3E0,-2.7450457E-2,-9.13304E-3,5.4E1,6.467472E-2,1.1173229E-2],"split_indices":[12,13,0,6,0,0,7,0,0],"split_type":[0,0,0,0,0,0,0,0,0],"sum_hessian":[6.6234303E0,5.275424E0,1.3480062E0,3.9786527E0,1.2967714E0,1.8808742E0,2.0977786E0,1.0604465E0,1.0373322E0],"tree_param":{"num_deleted":"0","num_feature":"16","num_nodes":"9","size_leaf_vector":"1"}},{"base_weights":[-5.405483E-3,1.7180267E-1,-1.9148016E-1,-1.313027E-2,4.3075763E-2,-3.646707E-2,1.5812008E-2],"categories":[],"categories_nodes":[],"categories_segments":[],"categories_sizes":[],"default_left":[0,0,0,0,0,0,0],"id":59,"left_children":[1,3,5,-1,-1,-1,-1],"loss_changes":[2.821938E-1,4.0188366E-1,3.095916E-1,0E0,0E0,0E0,0E0],"parents":[2147483647,0,0,1,1,2,2],"right_children":[2,4,6,-1,-1,-1,-1],"split_conditions":[7.1E1,1.6831878E6,1.24E2,-1.313027E-2,4.3075763E-2,-3.646707E-2,1.5812008E-2],"split_indices":[0,2,4,0,0,0,0],"split_type":[0,0,0,0,0,0,0],"sum_hessian":[6.560423E0,3.3995569E0,3.1608663E0,1.793374E0,1.6061829E0,2.0849051E0,1.075961E0],"tree_param":{"num_deleted":"0","num_feature":"16","num_nodes":"7","size_leaf_vector":"1"}},{"base_weights":[-3.7540807E-3,1.0621623E-1,-2.9649694E-2,2.7754498E-1,-2.3773845E-2,-9.630922E-3,4.4314504E-1,1.4368611E-3,6.206655E-2],"categories":[],"categories_nodes":[],"categories_segments":[],"categories_sizes":[],"default_left":[0,0,0,0,0,0,0,0,0],"id":60,"left_children":[1,3,-1,5,-1,-1,7,-1,-1],"loss_changes":[2.729638E-1,4.3068042E-1,0E0,3.269946E-1,0E0,0E0,2.4692178E-1,0E0,0E0],"parents":[2147483647,0,0,1,1,3,3,6,6],"right_children":[2,4,-1,6,-1,-1,8,-1,-1],"split_conditions":[3.02E1,1E0,-2.9649694E-2,7.8E1,-2.3773845E-2,-9.630922E-3,7.79E1,1.4368611E-3,6.206655E-2],"split_indices":[12,8,0,14,0,0,11,0,0],"split_type":[0,0,0,0,0,0,0,0,0],"sum_hessian":[6.5007243E0,5.1887236E0,1.3120011E0,3.5923831E0,1.5963403E0,1.2312253E0,2.361158E0,1.007828E0,1.3533299E0],"tree_param":{"num_deleted":"0","num_feature":"16","num_nodes":"9","size_leaf_vector":"1"}},{"base_weights":[-3.3842667E-3,2.1899793E-1,-1.4889583E-1,3.9366037E-2,-9.441335E-3,-3.7894696E-1,2.0484906E-2,1.0707253E-4,-5.380238E-2],"categories":[],"categories_nodes":[],"categories_segments":[],"categories_sizes":[],"default_left":[0,0,0,0,0,0,0,0,0],"id":61,"left_children":[1,3,5,-1,-1,7,-1,-1,-1],"loss_changes":[2.7371517E-1,2.2064705E-1,4.9259618E-1,0E0,0E0,2.0857283E-1,0E0,0E0,0E0],"parents":[2147483647,0,0,1,1,2,2,5,5],"right_children":[2,4,6,-1,-1,8,-1,-1,-1],"split_conditions":[2.79E1,1E0,1.05E2,3.9366037E-2,-9.441335E-3,5.8E1,2.0484906E-2,1.0707253E-4,-5.380238E-2],"split_indices":[12,9,4,0,0,0,0,0,0],"split_type":[0,0,0,0,0,0,0,0,0],"sum_hessian":[6.45097E0,2.351778E0,4.099192E0,1.3457488E0,1.0060291E0,2.440692E0,1.6585004E0,1.0132984E0,1.4273934E0],"tree_param":{"num_deleted":"0","num_feature":"16","num_nodes":"9","size_leaf_vector":"1"}},{"base_weights":[-3.7193843E-3,-2.086385E-1,1.5614705E-1,8.438571E-3,-4.2572316E-2,2.9985833E-1,-1.4625489E-2,4.1816838E-2,4.699313E-3],"categories":[],"categories_nodes":[],"categories_segments":[],"categories_sizes":[],"default_left":[0,0,0,0,0,0,0,0,0],"id":62,"left_children":[1,3,5,-1,-1,7,-1,-1,-1],"loss_changes":[2.748287E-1,2.693008E-1,2.4924E-1,0E0,0E0,8.599576E-2,0E0,0E0,0E0],"parents":[2147483647,0,0,1,1,2,2,5,5],"right_children":[2,4,6,-1,-1,8,-1,-1,-1],"split_conditions":[1E0,3.5E1,1E0,8.438571E-3,-4.2572316E-2,7E1,-1.4625489E-2,4.1816838E-2,4.699313E-3],"split_indices":[5,7,8,0,0,0,0,0,0],"split_type":[0,0,0,0,0,0,0,0,0],"sum_hessian":[6.3947725E0,2.6687937E0,3.7259786E0,1.3958845E0,1.2729093E0,2.5313904E0,1.1945881E0,1.279173E0,1.2522174E0],"tree_param":{"num_deleted":"0","num_feature":"16","num_nodes":"9","size_leaf_vector":"1"}},{"base_weights":[-3.7655684E-3,-1.23407684E-1,2.4864957E-2,2.3620732E-2,-2.92747E-1,-8.421928E-4,-4.737179E-2],"categories":[],"categories_nodes":[],"categories_segments":[],"categories_sizes":[],"default_left":[0,0,0,0,0,0,0],"id":63,"left_children":[1,3,-1,-1,5,-1,-1],"loss_changes":[2.5243378E-1,4.1320994E-1,0E0,0E0,2.1663159E-1,0E0,0E0],"parents":[2147483647,0,0,1,1,4,4],"right_children":[2,4,-1,-1,6,-1,-1],"split_conditions":[3E0,1.1825772E6,2.4864957E-2,2.3620732E-2,7E1,-8.421928E-4,-4.737179E-2],"split_indices":[5,2,0,0,0,0,0],"split_type":[0,0,0,0,0,0,0],"sum_hessian":[6.342793E0,4.6498876E0,1.6929053E0,1.3621985E0,3.287689E0,1.6857418E0,1.6019472E0],"tree_param":{"num_deleted":"0","num_feature":"16","num_nodes":"7","size_leaf_vector":"1"}},{"base_weights":[-3.553526E-3,-1.2602052E-1,2.4151718E-2,-3.3488908E-1,1.3322186E-1,-5.9554566E-2,1.1329634E-2,2.9854838E-2,-8.280093E-3],"categories":[],"categories_nodes":[],"categories_segments":[],"categories_sizes":[],"default_left":[0,0,0,0,0,0,0,0,0],"id":64,"left_children":[1,3,-1,5,7,-1,-1,-1,-1],"loss_changes":[2.4944374E-1,3.4365773E-1,0E0,4.5802468E-1,1.382781E-1,0E0,0E0,0E0,0E0],"parents":[2147483647,0,0,1,1,3,3,4,4],"right_children":[2,4,-1,6,8,-1,-1,-1,-1],"split_conditions":[9.2E1,3E0,2.4151718E-2,8.4E1,2.1639262E5,-5.9554566E-2,1.1329634E-2,2.9854838E-2,-8.280093E-3],"split_indices":[15,6,0,14,3,0,0,0,0],"split_type":[0,0,0,0,0,0,0,0,0],"sum_hessian":[6.297074E0,4.522743E0,1.7743309E0,2.3431199E0,2.1796234E0,1.2736151E0,1.0695046E0,1.0182862E0,1.1613371E0],"tree_param":{"num_deleted":"0","num_feature":"16","num_nodes":"9","size_leaf_vector":"1"}},{"base_weights":[-3.8515932E-3,2.1059006E-1,-1.4470686E-1,-1.86137E-3,3.5824772E-2,-3.659812E-1,1.9403178E-2,-7.427995E-4,-5.170048E-2],"categories":[],"categories_nodes":[],"categories_segments":[],"categories_sizes":[],"default_left":[0,0,0,0,0,0,0,0,0],"id":65,"left_children":[1,3,5,-1,-1,7,-1,-1,-1],"loss_changes":[2.4899636E-1,1.1751968E-1,4.4272453E-1,0E0,0E0,1.7735526E-1,0E0,0E0,0E0],"parents":[2147483647,0,0,1,1,2,2,5,5],"right_children":[2,4,6,-1,-1,8,-1,-1,-1],"split_conditions":[2.79E1,3E0,1.05E2,-1.86137E-3,3.5824772E-2,1.16E2,1.9403178E-2,-7.427995E-4,-5.170048E-2],"split_indices":[12,6,4,0,0,13,0,0,0],"split_type":[0,0,0,0,0,0,0,0,0],"sum_hessian":[6.234591E0,2.275393E0,3.959198E0,1.2339365E0,1.0414565E0,2.346179E0,1.6130189E0,1.0062859E0,1.3398932E0],"tree_param":{"num_deleted":"0","num_feature":"16","num_nodes":"9","size_leaf_vector":"1"}},{"base_weights":[-3.535638E-3,1.0228043E-1,-2.836231E-2,2.4987285E-1,-2.5845421E-2,5.2396674E-2,-1.8785276E-2,-2.4562033E-2,2.0210462E-2],"categories":[],"categories_nodes":[],"categories_segments":[],"categories_sizes":[],"default_left":[0,0,0,0,0,0,0,0,0],"id":66,"left_children":[1,3,-1,5,-1,-1,7,-1,-1],"loss_changes":[2.4183479E-1,3.812E-1,0E0,3.5804635E-1,0E0,0E0,2.176637E-1,0E0,0E0],"parents":[2147483647,0,0,1,1,3,3,6,6],"right_children":[2,4,-1,6,-1,-1,8,-1,-1],"split_conditions":[3.02E1,1.32E2,-2.836231E-2,1.2652189E6,-2.5845421E-2,5.2396674E-2,7.9E1,-2.4562033E-2,2.0210462E-2],"split_indices":[12,13,0,2,0,0,14,0,0],"split_type":[0,0,0,0,0,0,0,0,0],"sum_hessian":[6.180898E0,4.94683E0,1.2340683E0,3.7286124E0,1.2182173E0,1.3752384E0,2.353374E0,1.1058265E0,1.2475476E0],"tree_param":{"num_deleted":"0","num_feature":"16","num_nodes":"9","size_leaf_vector":"1"}},{"base_weights":[-4.146711E-3,-2.0334001E-1,1.5099713E-1,6.411458E-3,-3.9901044E-2,-8.876375E-3,3.5255503E-2],"categories":[],"categories_nodes":[],"categories_segments":[],"categories_sizes":[],"default_left":[0,0,0,0,0,0,0],"id":67,"left_children":[1,3,5,-1,-1,-1,-1],"loss_changes":[2.5140157E-1,2.1152067E-1,2.530367E-1,0E0,0E0,0E0,0E0],"parents":[2147483647,0,0,1,1,2,2],"right_children":[2,4,6,-1,-1,-1,-1],"split_conditions":[1E0,3.5E1,3.1245275E5,6.411458E-3,-3.9901044E-2,-8.876375E-3,3.5255503E-2],"split_indices":[5,7,3,0,0,0,0],"split_type":[0,0,0,0,0,0,0],"sum_hessian":[6.1414886E0,2.5529866E0,3.588502E0,1.3626986E0,1.1902881E0,1.8945152E0,1.6939869E0],"tree_param":{"num_deleted":"0","num_feature":"16","num_nodes":"7","size_leaf_vector":"1"}},{"base_weights":[-4.831343E-3,-1.9428365E-1,1.4218599E-1,6.0330434E-3,-3.8351018E-2,2.8335488E-1,-1.462844E-2,3.912453E-2,4.305032E-3],"categories":[],"categories_nodes":[],"categories_segments":[],"categories_sizes":[],"default_left":[0,0,0,0,0,0,0,0,0],"id":68,"left_children":[1,3,5,-1,-1,7,-1,-1,-1],"loss_changes":[2.2523746E-1,1.9285719E-1,2.2764738E-1,0E0,0E0,7.157722E-2,0E0,0E0,0E0],"parents":[2147483647,0,0,1,1,2,2,5,5],"right_children":[2,4,6,-1,-1,8,-1,-1,-1],"split_conditions":[1E0,3.5E1,1E0,6.0330434E-3,-3.8351018E-2,7E1,-1.462844E-2,3.912453E-2,4.305032E-3],"split_indices":[5,7,8,0,0,0,0,0,0],"split_type":[0,0,0,0,0,0,0,0,0],"sum_hessian":[6.0949154E0,2.5226402E0,3.572275E0,1.3659103E0,1.1567298E0,2.41042E0,1.161855E0,1.2300411E0,1.1803789E0],"tree_param":{"num_deleted":"0","num_feature":"16","num_nodes":"9","size_leaf_vector":"1"}},{"base_weights":[-4.93624E-3,9.6883416E-2,-2.73323E-2,2.433681E-1,-2.5764585E-2,-7.4065547E-3,4.5112398E-2],"categories":[],"categories_nodes":[],"categories_segments":[],"categories_sizes":[],"default_left":[0,0,0,0,0,0,0],"id":69,"left_children":[1,3,-1,5,-1,-1,-1],"loss_changes":[2.1912792E-1,3.6646396E-1,0E0,3.4028512E-1,0E0,0E0,0E0],"parents":[2147483647,0,0,1,1,3,3],"right_children":[2,4,-1,6,-1,-1,-1],"split_conditions":[3.02E1,1.32E2,-2.73323E-2,3E0,-2.5764585E-2,-7.4065547E-3,4.5112398E-2],"split_indices":[12,13,0,6,0,0,0],"split_type":[0,0,0,0,0,0,0],"sum_hessian":[6.049699E0,4.849085E0,1.2006137E0,3.653199E0,1.1958859E0,1.6996984E0,1.9535006E0],"tree_param":{"num_deleted":"0","num_feature":"16","num_nodes":"7","size_leaf_vector":"1"}},{"base_weights":[-6.6823834E-3,8.9982845E-2,-2.8009787E-2,2.6258156E-1,-1.4798655E-1,4.580256E-2,-1.2429614E-2,7.1436176E-3,-2.9601445E-2],"categories":[],"categories_nodes":[],"categories_segments":[],"categories_sizes":[],"default_left":[0,0,0,0,0,0,0,0,0],"id":70,"left_children":[1,3,-1,5,7,-1,-1,-1,-1],"loss_changes":[2.1025395E-1,2.8240693E-1,0E0,3.4405637E-1,1.2288565E-1,0E0,0E0,0E0,0E0],"parents":[2147483647,0,0,1,1,3,3,4,4],"right_children":[2,4,-1,6,8,-1,-1,-1,-1],"split_conditions":[9.08E1,7.1E1,-2.8009787E-2,8.5E1,2.79E1,4.580256E-2,-1.2429614E-2,7.1436176E-3,-2.9601445E-2],"split_indices":[11,0,0,14,12,0,0,0,0],"split_type":[0,0,0,0,0,0,0,0,0],"sum_hessian":[6.0015736E0,4.929616E0,1.0719576E0,2.797308E0,2.1323078E0,1.7362709E0,1.0610371E0,1.0674436E0,1.0648642E0],"tree_param":{"num_deleted":"0","num_feature":"16","num_nodes":"9","size_leaf_vector":"1"}},{"base_weights":[-8.562513E-3,-1.238223E-1,2.3101028E-2,-2.8038722E-1,2.0029902E-2,1.0278503E-2,-4.4192694E-2],"categories":[],"categories_nodes":[],"categories_segments":[],"categories_sizes":[],"default_left":[0,0,0,0,0,0,0],"id":71,"left_children":[1,3,-1,5,-1,-1,-1],"loss_changes":[2.2070846E-1,3.2756144E-1,0E0,2.9443273E-1,0E0,0E0,0E0],"parents":[2147483647,0,0,1,1,3,3],"right_children":[2,4,-1,6,-1,-1,-1],"split_conditions":[3E0,1.758E2,2.3101028E-2,7.36E1,2.0029902E-2,1.0278503E-2,-4.4192694E-2],"split_indices":[5,10,0,11,0,0,0],"split_type":[0,0,0,0,0,0,0],"sum_hessian":[5.956995E0,4.3482037E0,1.6087911E0,3.0229275E0,1.3252763E0,1.0043427E0,2.0185847E0],"tree_param":{"num_deleted":"0","num_feature":"16","num_nodes":"7","size_leaf_vector":"1"}},{"base_weights":[-6.583794E-3,-1.4999074E-1,1.829078E-1,1.0534708E-1,-4.809473E-2,-1.3862738E-2,4.513191E-2,3.4568172E-2,-1.7005712E-2],"categories":[],"categories_nodes":[],"categories_segments":[],"categories_sizes":[],"default_left":[0,0,0,0,0,0,0,0,0],"id":72,"left_children":[1,3,5,7,-1,-1,-1,-1,-1],"loss_changes":[2.153508E-1,4.2973283E-1,3.5854417E-1,2.8068072E-1,0E0,0E0,0E0,0E0,0E0],"parents":[2147483647,0,0,1,1,2,2,3,3],"right_children":[2,4,6,8,-1,-1,-1,-1,-1],"split_conditions":[3.220855E5,1E0,1.02E2,1.2652189E6,-4.809473E-2,-1.3862738E-2,4.513191E-2,3.4568172E-2,-1.7005712E-2],"split_indices":[3,9,4,2,0,0,0,0,0],"split_type":[0,0,0,0,0,0,0,0,0],"sum_hessian":[5.915195E0,3.4856887E0,2.4295065E0,2.3524377E0,1.1332508E0,1.325359E0,1.1041474E0,1.1199346E0,1.2325033E0],"tree_param":{"num_deleted":"0","num_feature":"16","num_nodes":"9","size_leaf_vector":"1"}},{"base_weights":[-5.9754667E-3,-1.878355E-1,1.3603795E-1,4.9106455E-3,-3.618354E-2,-8.7702535E-3,3.23344E-2],"categories":[],"categories_nodes":[],"categories_segments":[],"categories_sizes":[],"default_left":[0,0,0,0,0,0,0],"id":73,"left_children":[1,3,5,-1,-1,-1,-1],"loss_changes":[2.0244423E-1,1.5890399E-1,2.1383855E-1,0E0,0E0,0E0,0E0],"parents":[2147483647,0,0,1,1,2,2],"right_children":[2,4,6,-1,-1,-1,-1],"split_conditions":[1E0,3.5E1,3.1245275E5,4.9106455E-3,-3.618354E-2,-8.7702535E-3,3.23344E-2],"split_indices":[5,7,3,0,0,0,0],"split_type":[0,0,0,0,0,0,0],"sum_hessian":[5.849207E0,2.4233036E0,3.425903E0,1.3299887E0,1.093315E0,1.8034352E0,1.6224679E0],"tree_param":{"num_deleted":"0","num_feature":"16","num_nodes":"7","size_leaf_vector":"1"}},{"base_weights":[-6.594811E-3,-9.793418E-2,2.5982505E-2,1.8411562E-2,-2.6749042E-1,-6.0918037E-4,-4.5901086E-2],"categories":[],"categories_nodes":[],"categories_segments":[],"categories_sizes":[],"default_left":[0,0,0,0,0,0,0],"id":74,"left_children":[1,3,-1,-1,5,-1,-1],"loss_changes":[1.9115281E-1,3.2649228E-1,0E0,0E0,1.9887573E-1,0E0,0E0],"parents":[2147483647,0,0,1,1,4,4],"right_children":[2,4,-1,-1,6,-1,-1],"split_conditions":[5E0,2.79E1,2.5982505E-2,1.8411562E-2,6.6E1,-6.0918037E-4,-4.5901086E-2],"split_indices":[6,12,0,0,0,0,0],"split_type":[0,0,0,0,0,0,0],"sum_hessian":[5.809519E0,4.7972403E0,1.0122788E0,1.7688925E0,3.0283475E0,1.7168692E0,1.3114783E0],"tree_param":{"num_deleted":"0","num_feature":"16","num_nodes":"7","size_leaf_vector":"1"}},{"base_weights":[-6.4228503E-3,8.692313E-2,-2.6780179E-2,2.5251764E-1,-1.4356942E-1,4.390582E-2,-1.2539761E-2,4.3511293E-3,-2.5835017E-2],"categories":[],"categories_nodes":[],"categories_segments":[],"categories_sizes":[],"default_left":[0,0,0,0,0,0,0,0,0],"id":75,"left_children":[1,3,-1,5,7,-1,-1,-1,-1],"loss_changes":[1.8845E-1,2.554625E-1,0E0,3.16217E-1,7.6490454E-2,0E0,0E0,0E0,0E0],"parents":[2147483647,0,0,1,1,3,3,4,4],"right_children":[2,4,-1,6,8,-1,-1,-1,-1],"split_conditions":[9.08E1,7.1E1,-2.6780179E-2,8.5E1,1.23E2,4.390582E-2,-1.2539761E-2,4.3511293E-3,-2.5835017E-2],"split_indices":[11,0,0,14,13,0,0,0,0],"split_type":[0,0,0,0,0,0,0,0,0],"sum_hessian":[5.7697067E0,4.7432127E0,1.0264944E0,2.7045822E0,2.0386302E0,1.7024537E0,1.0021285E0,1.0112749E0,1.0273554E0],"tree_param":{"num_deleted":"0","num_feature":"16","num_nodes":"9","size_leaf_vector":"1"}},{"base_weights":[-8.3580315E-3,-1.3061251E-1,2.0193534E-2,2.2724604E-2,-2.8693703E-1,-5.059228E-4,-4.2485293E-2],"categories":[],"categories_nodes":[],"categories_segments":[],"categories_sizes":[],"default_left":[0,0,0,0,0,0,0],"id":76,"left_children":[1,3,-1,-1,5,-1,-1],"loss_changes":[1.9944364E-1,3.3731806E-1,0E0,0E0,1.4663887E-1,0E0,0E0],"parents":[2147483647,0,0,1,1,4,4],"right_children":[2,4,-1,-1,6,-1,-1],"split_conditions":[1.09E2,4.9E1,2.0193534E-2,2.2724604E-2,2.79E1,-5.059228E-4,-4.2485293E-2],"split_indices":[4,0,0,0,12,0,0],"split_type":[0,0,0,0,0,0,0],"sum_hessian":[5.731739E0,3.8641884E0,1.8675505E0,1.0368795E0,2.827309E0,1.2694473E0,1.5578616E0],"tree_param":{"num_deleted":"0","num_feature":"16","num_nodes":"7","size_leaf_vector":"1"}},{"base_weights":[-7.7022607E-3,-1.8745205E-1,1.334995E-1,6.3258023E-3,-3.3295814E-2,2.710429E-1,-1.4477916E-2,3.4910433E-2,6.2925094E-3],"categories":[],"categories_nodes":[],"categories_segments":[],"categories_sizes":[],"default_left":[0,0,0,0,0,0,0,0,0],"id":77,"left_children":[1,3,5,-1,-1,7,-1,-1,-1],"loss_changes":[1.9497314E-1,1.436998E-1,2.0513096E-1,0E0,0E0,3.0810326E-2,0E0,0E0,0E0],"parents":[2147483647,0,0,1,1,2,2,5,5],"right_children":[2,4,6,-1,-1,8,-1,-1,-1],"split_conditions":[1E0,1.1825772E6,1E0,6.3258023E-3,-3.3295814E-2,7E1,-1.4477916E-2,3.4910433E-2,6.2925094E-3],"split_indices":[5,2,8,0,0,0,0,0,0],"split_type":[0,0,0,0,0,0,0,0,0],"sum_hessian":[5.695894E0,2.3617892E0,3.3341043E0,1.0749253E0,1.286864E0,2.248668E0,1.0854362E0,1.1426457E0,1.1060224E0],"tree_param":{"num_deleted":"0","num_feature":"16","num_nodes":"9","size_leaf_vector":"1"}},{"base_weights":[-7.0519727E-3,-2.3332553E-2,1.0625322E-1,-1.4876428E-2,2.9856893E-1,3.9784893E-2,6.532305E-3],"categories":[],"categories_nodes":[],"categories_segments":[],"categories_sizes":[],"default_left":[0,0,0,0,0,0,0],"id":78,"left_children":[1,-1,3,-1,5,-1,-1],"loss_changes":[1.9549194E-1,0E0,2.956996E-1,0E0,4.935059E-2,0E0,0E0],"parents":[2147483647,0,0,2,2,4,4],"right_children":[2,-1,4,-1,6,-1,-1],"split_conditions":[3.8245242E4,-2.3332553E-2,8.8E1,-1.4876428E-2,2.82E1,3.9784893E-2,6.532305E-3],"split_indices":[3,0,4,0,12,0,0],"split_type":[0,0,0,0,0,0,0],"sum_hessian":[5.6581078E0,1.5344677E0,4.12364E0,1.8701768E0,2.253463E0,1.0856537E0,1.1678095E0],"tree_param":{"num_deleted":"0","num_feature":"16","num_nodes":"7","size_leaf_vector":"1"}},{"base_weights":[-5.170192E-3,-1.3811772E-1,1.697069E-1,1.0942881E-1,-4.6036523E-2,-1.513695E-2,3.9332584E-2,3.2047164E-2,-1.4521012E-2],"categories":[],"categories_nodes":[],"categories_segments":[],"categories_sizes":[],"default_left":[0,0,0,0,0,0,0,0,0],"id":79,"left_children":[1,3,5,7,-1,-1,-1,-1,-1],"loss_changes":[1.7726465E-1,3.941963E-1,2.969201E-1,2.2094853E-1,0E0,0E0,0E0,0E0,0E0],"parents":[2147483647,0,0,1,1,2,2,3,3],"right_children":[2,4,6,8,-1,-1,-1,-1,-1],"split_conditions":[3.220855E5,1E0,2E0,1.2652189E6,-4.6036523E-2,-1.513695E-2,3.9332584E-2,3.2047164E-2,-1.4521012E-2],"split_indices":[3,9,5,2,0,0,0,0,0],"split_type":[0,0,0,0,0,0,0,0,0],"sum_hessian":[5.616283E0,3.3100624E0,2.3062208E0,2.2455099E0,1.0645525E0,1.0794367E0,1.2267842E0,1.0864962E0,1.1590136E0],"tree_param":{"num_deleted":"0","num_feature":"16","num_nodes":"9","size_leaf_vector":"1"}},{"base_weights":[-5.442204E-3,-2.2197817E-2,1.02717444E-1,-1.3478051E-2,2.818951E-1,3.7681103E-2,4.9399096E-3],"categories":[],"categories_nodes":[],"categories_segments":[],"categories_sizes":[],"default_left":[0,0,0,0,0,0,0],"id":80,"left_children":[1,-1,3,-1,5,-1,-1],"loss_changes":[1.7630385E-1,0E0,2.5308853E-1,0E0,5.2101314E-2,0E0,0E0],"parents":[2147483647,0,0,2,2,4,4],"right_children":[2,-1,4,-1,6,-1,-1],"split_conditions":[3.8245242E4,-2.2197817E-2,8.8E1,-1.3478051E-2,1.14E2,3.7681103E-2,4.9399096E-3],"split_indices":[3,0,4,0,4,0,0],"split_type":[0,0,0,0,0,0,0],"sum_hessian":[5.5542207E0,1.4996324E0,4.0545883E0,1.8500932E0,2.204495E0,1.124642E0,1.079853E0],"tree_param":{"num_deleted":"0","num_feature":"16","num_nodes":"7","size_leaf_vector":"1"}},{"base_weights":[-3.8629847E-3,8.968045E-2,-2.5188139E-2,2.265863E-1,-2.422246E-2,-6.800963E-3,4.172867E-2],"categories":[],"categories_nodes":[],"categories_segments":[],"categories_sizes":[],"default_left":[0,0,0,0,0,0,0],"id":81,"left_children":[1,3,-1,5,-1,-1,-1],"loss_changes":[1.737191E-1,3.0332762E-1,0E0,2.748692E-1,0E0,0E0,0E0],"parents":[2147483647,0,0,1,1,3,3],"right_children":[2,4,-1,6,-1,-1,-1],"split_conditions":[3.02E1,1.32E2,-2.5188139E-2,3E0,-2.422246E-2,-6.800963E-3,4.172867E-2],"split_indices":[12,13,0,6,0,0,0],"split_type":[0,0,0,0,0,0,0],"sum_hessian":[5.5140963E0,4.4675226E0,1.0465734E0,3.3875325E0,1.0799905E0,1.5839696E0,1.8035628E0],"tree_param":{"num_deleted":"0","num_feature":"16","num_nodes":"7","size_leaf_vector":"1"}},{"base_weights":[-5.7370714E-3,1.1321774E-1,-1.9844064E-2,-6.865546E-2,3.773017E-2,-3.2440167E-2,2.2991605E-2],"categories":[],"categories_nodes":[],"categories_segments":[],"categories_sizes":[],"default_left":[0,0,0,0,0,0,0],"id":82,"left_children":[1,3,-1,5,-1,-1,-1],"loss_changes":[1.7084433E-1,2.487139E-1,0E0,3.4895205E-1,0E0,0E0,0E0],"parents":[2147483647,0,0,1,1,3,3],"right_children":[2,4,-1,6,-1,-1,-1],"split_conditions":[1E0,1.05E2,-1.9844064E-2,1.716E2,3.773017E-2,-3.2440167E-2,2.2991605E-2],"split_indices":[8,4,0,10,0,0,0],"split_type":[0,0,0,0,0,0,0],"sum_hessian":[5.472853E0,3.6389978E0,1.8338553E0,2.5931401E0,1.0458577E0,1.3501421E0,1.242998E0],"tree_param":{"num_deleted":"0","num_feature":"16","num_nodes":"7","size_leaf_vector":"1"}},{"base_weights":[-3.933084E-3,-1.1398225E-1,2.085671E-2,-2.9536758E-2,1.1138422E-2],"categories":[],"categories_nodes":[],"categories_segments":[],"categories_sizes":[],"default_left":[0,0,0,0,0],"id":83,"left_children":[1,3,-1,-1,-1],"loss_changes":[1.7414223E-1,2.3249996E-1,0E0,0E0,0E0],"parents":[2147483647,0,0,1,1],"right_children":[2,4,-1,-1,-1],"split_conditions":[9.2E1,3E0,2.085671E-2,-2.9536758E-2,1.1138422E-2],"split_indices":[15,6,0,0,0],"split_type":[0,0,0,0,0],"sum_hessian":[5.4300303E0,3.8828177E0,1.5472126E0,1.9792312E0,1.9035864E0],"tree_param":{"num_deleted":"0","num_feature":"16","num_nodes":"5","size_leaf_vector":"1"}},{"base_weights":[-3.2452678E-3,-1.325005E-1,1.649089E-1,1.0902689E-1,-4.466882E-2,-1.37229515E-2,3.7318747E-2,3.0009637E-2,-1.2949841E-2],"categories":[],"categories_nodes":[],"categories_segments":[],"categories_sizes":[],"default_left":[0,0,0,0,0,0,0,0,0],"id":84,"left_children":[1,3,5,7,-1,-1,-1,-1,-1],"loss_changes":[1.610437E-1,3.6554894E-1,2.5439656E-1,1.8308206E-1,0E0,0E0,0E0,0E0,0E0],"parents":[2147483647,0,0,1,1,2,2,3,3],"right_children":[2,4,6,8,-1,-1,-1,-1,-1],"split_conditions":[3.220855E5,1E0,2E0,1.2652189E6,-4.466882E-2,-1.37229515E-2,3.7318747E-2,3.0009637E-2,-1.2949841E-2],"split_indices":[3,9,5,2,0,0,0,0,0],"split_type":[0,0,0,0,0,0,0,0,0],"sum_hessian":[5.4041615E0,3.1753736E0,2.228788E0,2.1644619E0,1.0109117E0,1.0486676E0,1.1801202E0,1.0584576E0,1.1060044E0],"tree_param":{"num_deleted":"0","num_feature":"16","num_nodes":"9","size_leaf_vector":"1"}},{"base_weights":[-3.6579017E-3,9.147742E-2,-2.3762053E-2,2.312189E-1,-2.1717928E-2,-4.6439874E-3,4.010596E-2],"categories":[],"categories_nodes":[],"categories_segments":[],"categories_sizes":[],"default_left":[0,0,0,0,0,0,0],"id":85,"left_children":[1,3,-1,5,-1,-1,-1],"loss_changes":[1.6302106E-1,2.759969E-1,0E0,2.1138841E-1,0E0,0E0,0E0],"parents":[2147483647,0,0,1,1,3,3],"right_children":[2,4,-1,6,-1,-1,-1],"split_conditions":[9.1E1,8.5E1,-2.3762053E-2,3E0,-2.1717928E-2,-4.6439874E-3,4.010596E-2],"split_indices":[0,14,0,6,0,0,0],"split_type":[0,0,0,0,0,0,0],"sum_hessian":[5.347536E0,4.234632E0,1.1129037E0,3.0876248E0,1.1470073E0,1.4476111E0,1.6400138E0],"tree_param":{"num_deleted":"0","num_feature":"16","num_nodes":"7","size_leaf_vector":"1"}},{"base_weights":[-4.894801E-3,1.3844156E-1,-1.5968211E-1,-1.5208899E-2,3.8892366E-2,1.1640638E-2,-3.4888037E-2],"categories":[],"categories_nodes":[],"categories_segments":[],"categories_sizes":[],"default_left":[0,0,0,0,0,0,0],"id":86,"left_children":[1,3,5,-1,-1,-1,-1],"loss_changes":[1.6212022E-1,3.3657342E-1,2.2335947E-1,0E0,0E0,0E0,0E0],"parents":[2147483647,0,0,1,1,2,2],"right_children":[2,4,6,-1,-1,-1,-1],"split_conditions":[7.1E1,1.6831878E6,7.57E1,-1.5208899E-2,3.8892366E-2,1.1640638E-2,-3.4888037E-2],"split_indices":[0,2,11,0,0,0,0],"split_type":[0,0,0,0,0,0,0],"sum_hessian":[5.310713E0,2.8121774E0,2.4985354E0,1.4838712E0,1.3283061E0,1.1724176E0,1.3261178E0],"tree_param":{"num_deleted":"0","num_feature":"16","num_nodes":"7","size_leaf_vector":"1"}},{"base_weights":[-4.4232127E-3,1.1152404E-1,-1.9194653E-2,-7.3947094E-2,3.3264976E-2,-3.6141153E-2,2.4835011E-2],"categories":[],"categories_nodes":[],"categories_segments":[],"categories_sizes":[],"default_left":[0,0,0,0,0,0,0],"id":87,"left_children":[1,3,-1,5,-1,-1,-1],"loss_changes":[1.5761314E-1,2.0929733E-1,0E0,3.9247137E-1,0E0,0E0,0E0],"parents":[2147483647,0,0,1,1,3,3],"right_children":[2,4,-1,6,-1,-1,-1],"split_conditions":[1E0,1.741E2,-1.9194653E-2,8.8E1,3.3264976E-2,-3.6141153E-2,2.4835011E-2],"split_indices":[8,10,0,4,0,0,0],"split_type":[0,0,0,0,0,0,0],"sum_hessian":[5.2644377E0,3.5034835E0,1.7609543E0,2.2673292E0,1.2361543E0,1.1342784E0,1.1330508E0],"tree_param":{"num_deleted":"0","num_feature":"16","num_nodes":"7","size_leaf_vector":"1"}},{"base_weights":[-3.6464215E-3,-1.09795876E-1,1.9944211E-2,-2.769026E-2,9.786912E-3],"categories":[],"categories_nodes":[],"categories_segments":[],"categories_sizes":[],"default_left":[0,0,0,0,0],"id":88,"left_children":[1,3,-1,-1,-1],"loss_changes":[1.5607563E-1,1.9133052E-1,0E0,0E0,0E0],"parents":[2147483647,0,0,1,1],"right_children":[2,4,-1,-1,-1],"split_conditions":[9.2E1,3E0,1.9944211E-2,-2.769026E-2,9.786912E-3],"split_indices":[15,6,0,0,0],"split_type":[0,0,0,0,0],"sum_hessian":[5.224109E0,3.73256E0,1.4915491E0,1.8835052E0,1.8490546E0],"tree_param":{"num_deleted":"0","num_feature":"16","num_nodes":"5","size_leaf_vector":"1"}},{"base_weights":[-3.02802E-3,-2.0860057E-2,1.00517124E-1,2.6033473E-1,-1.5692165E-2,5.1256765E-2,-7.097495E-3],"categories":[],"categories_nodes":[],"categories_segments":[],"categories_sizes":[],"default_left":[0,0,0,0,0,0,0],"id":89,"left_children":[1,-1,3,5,-1,-1,-1],"loss_changes":[1.5296847E-1,0E0,2.3829283E-1,3.152331E-1,0E0,0E0,0E0],"parents":[2147483647,0,0,2,2,3,3],"right_children":[2,-1,4,6,-1,-1,-1],"split_conditions":[3.8245242E4,-2.0860057E-2,2.83E1,1.8225788E6,-1.5692165E-2,5.1256765E-2,-7.097495E-3],"split_indices":[3,0,12,2,0,0,0],"split_type":[0,0,0,0,0,0,0],"sum_hessian":[5.2012734E0,1.4024147E0,3.798859E0,2.3368788E0,1.4619801E0,1.0161601E0,1.3207188E0],"tree_param":{"num_deleted":"0","num_feature":"16","num_nodes":"7","size_leaf_vector":"1"}},{"base_weights":[-1.4851544E-3,1.3719817E-1,-1.5221992E-1,-1.3918161E-2,3.720533E-2,1.1321097E-2,-3.3715334E-2],"categories":[],"categories_nodes":[],"categories_segments":[],"categories_sizes":[],"default_left":[0,0,0,0,0,0,0],"id":90,"left_children":[1,3,5,-1,-1,-1,-1],"loss_changes":[1.4970109E-1,2.9424104E-1,2.0638308E-1,0E0,0E0,0E0,0E0],"parents":[2147483647,0,0,1,1,2,2],"right_children":[2,4,6,-1,-1,-1,-1],"split_conditions":[7.1E1,1.6831878E6,7.57E1,-1.3918161E-2,3.720533E-2,1.1321097E-2,-3.3715334E-2],"split_indices":[0,2,11,0,0,0,0],"split_type":[0,0,0,0,0,0,0],"sum_hessian":[5.1621857E0,2.7353423E0,2.4268436E0,1.4437251E0,1.2916172E0,1.1557908E0,1.2710528E0],"tree_param":{"num_deleted":"0","num_feature":"16","num_nodes":"7","size_leaf_vector":"1"}},{"base_weights":[-1.2476775E-3,1.1275306E-1,-1.8555878E-2,-6.821651E-2,3.22416E-2,-3.456891E-2,2.4043871E-2],"categories":[],"categories_nodes":[],"categories_segments":[],"categories_sizes":[],"default_left":[0,0,0,0,0,0,0],"id":91,"left_children":[1,3,-1,5,-1,-1,-1],"loss_changes":[1.4950575E-1,1.8905658E-1,0E0,3.5619888E-1,0E0,0E0,0E0],"parents":[2147483647,0,0,1,1,3,3],"right_children":[2,4,-1,6,-1,-1,-1],"split_conditions":[1E0,1.741E2,-1.8555878E-2,8.8E1,3.22416E-2,-3.456891E-2,2.4043871E-2],"split_indices":[8,10,0,4,0,0,0],"split_type":[0,0,0,0,0,0,0],"sum_hessian":[5.119639E0,3.4030306E0,1.7166085E0,2.1885936E0,1.214437E0,1.0893306E0,1.099263E0],"tree_param":{"num_deleted":"0","num_feature":"16","num_nodes":"7","size_leaf_vector":"1"}},{"base_weights":[-6.8406406E-4,-1.0699616E-1,1.983631E-2,-2.7091622E-2,9.470418E-3],"categories":[],"categories_nodes":[],"categories_segments":[],"categories_sizes":[],"default_left":[0,0,0,0,0],"id":92,"left_children":[1,3,-1,-1,-1],"loss_changes":[1.4993125E-1,1.7821802E-1,0E0,0E0,0E0],"parents":[2147483647,0,0,1,1],"right_children":[2,4,-1,-1,-1],"split_conditions":[9.2E1,3E0,1.983631E-2,-2.7091622E-2,9.470418E-3],"split_indices":[15,6,0,0,0],"split_type":[0,0,0,0,0],"sum_hessian":[5.0822473E0,3.6142933E0,1.4679542E0,1.8045719E0,1.8097214E0],"tree_param":{"num_deleted":"0","num_feature":"16","num_nodes":"5","size_leaf_vector":"1"}},{"base_weights":[-3.109362E-4,-1.2614344E-1,1.5977933E-1,1.2830205E-2,-3.7883427E-2,-1.1554953E-2,3.673094E-2],"categories":[],"categories_nodes":[],"categories_segments":[],"categories_sizes":[],"default_left":[0,0,0,0,0,0,0],"id":93,"left_children":[1,3,5,-1,-1,-1,-1],"loss_changes":[1.422542E-1,3.0273524E-1,2.2006735E-1,0E0,0E0,0E0,0E0],"parents":[2147483647,0,0,1,1,2,2],"right_children":[2,4,6,-1,-1,-1,-1],"split_conditions":[3.220855E5,8.1E1,5.9E1,1.2830205E-2,-3.7883427E-2,-1.1554953E-2,3.673094E-2],"split_indices":[3,14,7,0,0,0,0],"split_type":[0,0,0,0,0,0,0],"sum_hessian":[5.061144E0,2.9524992E0,2.108645E0,1.7164184E0,1.2360806E0,1.0967753E0,1.0118697E0],"tree_param":{"num_deleted":"0","num_feature":"16","num_nodes":"7","size_leaf_vector":"1"}},{"base_weights":[-3.259438E-4,1.3604626E-1,-1.4845462E-1,-1.2918857E-2,3.5787985E-2,1.0844694E-2,-3.2747474E-2],"categories":[],"categories_nodes":[],"categories_segments":[],"categories_sizes":[],"default_left":[0,0,0,0,0,0,0],"id":94,"left_children":[1,3,5,-1,-1,-1,-1],"loss_changes":[1.4181864E-1,2.613783E-1,1.9023249E-1,0E0,0E0,0E0,0E0],"parents":[2147483647,0,0,1,1,2,2],"right_children":[2,4,6,-1,-1,-1,-1],"split_conditions":[7.1E1,1.6831878E6,7.57E1,-1.2918857E-2,3.5787985E-2,1.0844694E-2,-3.2747474E-2],"split_indices":[0,2,11,0,0,0,0],"split_type":[0,0,0,0,0,0,0],"sum_hessian":[5.0206995E0,2.6565542E0,2.3641453E0,1.4001276E0,1.2564266E0,1.1327785E0,1.2313669E0],"tree_param":{"num_deleted":"0","num_feature":"16","num_nodes":"7","size_leaf_vector":"1"}},{"base_weights":[-1.7740353E-4,1.11554556E-1,-1.8051488E-2,-6.8107255E-2,3.141595E-2,-3.2942634E-2,2.2592973E-2],"categories":[],"categories_nodes":[],"categories_segments":[],"categories_sizes":[],"default_left":[0,0,0,0,0,0,0],"id":95,"left_children":[1,3,-1,5,-1,-1,-1],"loss_changes":[1.4065634E-1,1.7832457E-1,0E0,3.1314516E-1,0E0,0E0,0E0],"parents":[2147483647,0,0,1,1,3,3],"right_children":[2,4,-1,6,-1,-1,-1],"split_conditions":[1E0,1.741E2,-1.8051488E-2,8.8E1,3.141595E-2,-3.2942634E-2,2.2592973E-2],"split_indices":[8,10,0,4,0,0,0],"split_type":[0,0,0,0,0,0,0],"sum_hessian":[4.9812565E0,3.3111653E0,1.6700914E0,2.1067908E0,1.2043743E0,1.0517309E0,1.05506E0],"tree_param":{"num_deleted":"0","num_feature":"16","num_nodes":"7","size_leaf_vector":"1"}},{"base_weights":[2.7968266E-4,1.7007824E-2,-1.1560715E-1,-3.0141616E-2,1.6473444E-2],"categories":[],"categories_nodes":[],"categories_segments":[],"categories_sizes":[],"default_left":[0,0,0,0,0],"id":96,"left_children":[1,-1,3,-1,-1],"loss_changes":[1.366832E-1,0E0,2.6478237E-1,0E0,0E0],"parents":[2147483647,0,0,2,2],"right_children":[2,-1,4,-1,-1],"split_conditions":[2.79E1,1.7007824E-2,1.05E2,-3.0141616E-2,1.6473444E-2],"split_indices":[12,0,4,0,0],"split_type":[0,0,0,0,0],"sum_hessian":[4.9469666E0,1.8170229E0,3.1299436E0,1.8371291E0,1.2928145E0],"tree_param":{"num_deleted":"0","num_feature":"16","num_nodes":"5","size_leaf_vector":"1"}},{"base_weights":[7.3755585E-4,9.0346135E-2,-2.1769186E-2,2.2336334E-1,-2.0641178E-2,4.118016E-2,-1.7223137E-3],"categories":[],"categories_nodes":[],"categories_segments":[],"categories_sizes":[],"default_left":[0,0,0,0,0,0,0],"id":97,"left_children":[1,3,-1,5,-1,-1,-1],"loss_changes":[1.3548787E-1,2.3963186E-1,0E0,1.8233956E-1,0E0,0E0,0E0],"parents":[2147483647,0,0,1,1,3,3],"right_children":[2,4,-1,6,-1,-1,-1],"split_conditions":[9.1E1,8.5E1,-2.1769186E-2,1.2652189E6,-2.0641178E-2,4.118016E-2,-1.7223137E-3],"split_indices":[0,14,0,2,0,0,0],"split_type":[0,0,0,0,0,0,0],"sum_hessian":[4.917302E0,3.9026575E0,1.0146449E0,2.865543E0,1.0371145E0,1.2078459E0,1.6576971E0],"tree_param":{"num_deleted":"0","num_feature":"16","num_nodes":"7","size_leaf_vector":"1"}},{"base_weights":[1.450311E-4,-1.0313702E-1,1.9176058E-2,-2.5863767E-2,8.855981E-3],"categories":[],"categories_nodes":[],"categories_segments":[],"categories_sizes":[],"default_left":[0,0,0,0,0],"id":98,"left_children":[1,3,-1,-1,-1],"loss_changes":[1.3647547E-1,1.565011E-1,0E0,0E0,0E0],"parents":[2147483647,0,0,1,1],"right_children":[2,4,-1,-1,-1],"split_conditions":[9.2E1,3E0,1.9176058E-2,-2.5863767E-2,8.855981E-3],"split_indices":[15,6,0,0,0],"split_type":[0,0,0,0,0],"sum_hessian":[4.896676E0,3.4817433E0,1.4149325E0,1.7295585E0,1.752185E0],"tree_param":{"num_deleted":"0","num_feature":"16","num_nodes":"5","size_leaf_vector":"1"}},{"base_weights":[4.480863E-4,1.1366789E-1,-1.804291E-2,-1.002064E-2,2.5304291E-2],"categories":[],"categories_nodes":[],"categories_segments":[],"categories_sizes":[],"default_left":[0,0,0,0,0],"id":99,"left_children":[1,3,-1,-1,-1],"loss_changes":[1.4087175E-1,1.5139554E-1,0E0,0E0,0E0],"parents":[2147483647,0,0,1,1],"right_children":[2,4,-1,-1,-1],"split_conditions":[1E0,1.662E2,-1.804291E-2,-1.002064E-2,2.5304291E-2],"split_indices":[8,10,0,0,0],"split_type":[0,0,0,0,0],"sum_hessian":[4.8774085E0,3.2282588E0,1.6491498E0,1.3845952E0,1.8436637E0],"tree_param":{"num_deleted":"0","num_feature":"16","num_nodes":"5","size_leaf_vector":"1"}}]},"name":"gbtree"},"learner_model_param":{"base_score":"[1.4285715E-1]","boost_from_average":"1","num_class":"0","num_feature":"16","num_target":"1"},"objective":{"name":"binary:logistic","reg_loss_param":{"scale_pos_weight":"1"}}},"version":[3,2,0]}